~o
<STREAMINFO> 1 39
<VECSIZE> 39<NULLD><MFCC_E_D_A_Z><DIAGC>
~s "silst"
<NUMMIXES> 6
<MIXTURE> 1 2.295678e-01
<MEAN> 39
 -5.522302e+00 -2.475289e-01 4.455489e+00 6.782002e+00 4.823343e+00 7.291166e+00 3.450013e+00 5.834335e+00 2.643270e+00 3.839068e+00 2.955169e+00 9.621049e-01 2.720486e-01 -2.605695e+00 -1.167756e+00 -1.060901e+00 9.499218e-01 1.085083e+00 1.935506e+00 2.236912e+00 2.645016e+00 1.790761e+00 1.614538e+00 8.929418e-01 3.455550e-01 -9.480338e-02 5.618560e-01 4.595363e-01 -1.998663e-01 -5.787382e-01 -5.378277e-01 -7.154297e-01 -4.551721e-01 -5.102493e-01 -2.360856e-01 -4.137606e-01 -2.475859e-01 -1.541485e-01 3.596298e-02
<VARIANCE> 39
 2.053865e+01 3.304300e+01 1.893933e+01 2.440099e+01 2.426374e+01 3.131728e+01 2.924707e+01 3.355564e+01 3.207050e+01 3.053407e+01 3.062589e+01 2.692488e+01 2.660281e-02 1.976401e+00 2.484989e+00 2.529968e+00 2.121882e+00 2.474430e+00 3.081289e+00 3.047655e+00 3.283554e+00 3.228701e+00 3.252844e+00 3.570594e+00 3.433663e+00 2.704431e-03 2.878244e-01 5.170834e-01 3.451914e-01 5.092613e-01 4.739054e-01 5.518225e-01 5.604130e-01 6.360785e-01 6.461292e-01 6.272472e-01 5.238092e-01 4.992255e-01 4.201813e-04
<GCONST> 9.834657e+01
<MIXTURE> 2 1.749409e-01
<MEAN> 39
 -2.438560e+00 -2.740309e+00 1.507360e+00 1.805313e+00 2.949424e+00 4.364449e+00 4.929374e+00 4.414971e+00 3.718619e+00 3.131785e+00 2.974738e+00 2.055911e+00 2.770466e-01 -2.127131e-01 2.130060e-01 -2.108739e-01 1.684499e-01 -2.368162e-01 -1.958579e-01 -2.580191e-01 -2.519293e-01 -1.289434e-01 2.750888e-01 4.939453e-02 -8.571279e-02 2.762510e-02 3.226562e-01 2.750497e-01 -6.819069e-02 -1.156667e-01 -2.252040e-01 -2.466992e-01 -3.640976e-01 -3.107989e-01 -2.964786e-01 -1.745874e-01 -2.527905e-01 -1.362566e-01 2.710095e-02
<VARIANCE> 39
 2.251108e+01 5.887548e+01 5.190229e+01 6.071883e+01 5.478075e+01 6.662863e+01 6.228463e+01 6.191020e+01 5.821066e+01 6.390794e+01 7.565337e+01 5.121049e+01 6.153865e-02 3.486410e+00 5.188896e+00 4.079208e+00 4.840394e+00 4.338810e+00 5.531631e+00 5.651073e+00 5.341568e+00 5.854337e+00 5.633889e+00 6.345467e+00 4.902515e+00 9.946344e-03 4.742958e-01 7.523915e-01 7.150277e-01 9.741318e-01 9.207352e-01 1.074092e+00 1.127292e+00 1.036039e+00 1.115850e+00 1.217410e+00 1.376838e+00 1.050416e+00 1.121097e-03
<GCONST> 1.244982e+02
<MIXTURE> 3 1.231474e-01
<MEAN> 39
 -2.707933e+00 -6.022042e-01 2.198752e+00 2.689741e+00 2.972394e+00 3.988671e+00 1.721875e+00 3.257774e+00 3.273422e+00 1.395447e+00 1.682412e+00 8.757357e-01 -1.759486e-03 -2.607290e-01 1.645888e-01 7.475734e-02 2.096763e-01 4.672582e-02 1.195992e-01 5.669974e-02 9.636919e-02 -2.142305e-02 -3.666575e-02 -7.403885e-02 -6.578010e-02 -6.527973e-03 1.179161e-01 1.217250e-01 5.563965e-02 8.296443e-02 2.580654e-02 6.062122e-03 -1.401483e-02 -1.312416e-02 -1.053777e-02 5.168367e-03 1.227315e-02 3.474272e-02 1.594763e-02
<VARIANCE> 39
 1.328261e+01 3.988702e+01 2.069719e+01 2.398548e+01 2.294902e+01 2.478623e+01 2.530076e+01 3.098423e+01 2.283405e+01 2.558360e+01 2.456365e+01 1.787349e+01 1.785299e-02 7.548262e-01 1.032786e+00 9.153894e-01 1.271048e+00 1.485008e+00 1.588842e+00 1.655554e+00 1.836200e+00 1.755842e+00 1.826217e+00 1.626456e+00 1.433819e+00 1.311922e-03 1.622115e-01 2.517658e-01 2.025658e-01 2.469829e-01 2.989542e-01 3.457233e-01 3.386815e-01 3.854889e-01 3.908745e-01 3.680039e-01 3.165837e-01 2.898704e-01 4.187287e-04
<GCONST> 8.023805e+01
<MIXTURE> 4 1.218605e-01
<MEAN> 39
 3.651735e+00 5.158830e+00 3.659089e+00 9.673908e-01 -2.408860e-01 -2.945893e-01 -1.543364e+00 2.075130e-01 1.790676e+00 2.027112e+00 1.940830e+00 2.490860e+00 5.054099e-01 2.437164e+00 1.988552e+00 -1.336734e+00 -2.133252e+00 -2.045271e+00 -2.330127e+00 -1.882039e+00 -1.604387e+00 -1.398513e+00 -6.594494e-01 -4.530527e-01 -1.750596e-01 1.898812e-01 -5.746700e-01 -4.485447e-01 -2.661328e-01 -1.145403e-01 2.123403e-01 2.842676e-01 2.985399e-01 3.062018e-01 7.454762e-02 -8.821904e-02 -1.103736e-01 -1.521489e-01 -1.924001e-02
<VARIANCE> 39
 2.874876e+01 4.817537e+01 4.885874e+01 3.922637e+01 3.553608e+01 3.450227e+01 4.030482e+01 4.627563e+01 4.171748e+01 4.615368e+01 4.723778e+01 3.683306e+01 2.873882e-02 3.304774e+00 4.180292e+00 5.596041e+00 3.749387e+00 3.857003e+00 4.242308e+00 4.295830e+00 3.772039e+00 4.177132e+00 3.916954e+00 4.428919e+00 4.330611e+00 3.100412e-03 3.216907e-01 3.181226e-01 5.667309e-01 6.818378e-01 5.097597e-01 5.317144e-01 6.452577e-01 6.449538e-01 7.019297e-01 7.053521e-01 7.290283e-01 6.600642e-01 3.816109e-04
<GCONST> 1.090908e+02
<MIXTURE> 5 1.225470e-01
<MEAN> 39
 -2.734912e+00 -7.009836e-01 2.235285e+00 2.754979e+00 3.072065e+00 4.035689e+00 1.780342e+00 3.268309e+00 3.262709e+00 1.457581e+00 1.708584e+00 8.923488e-01 6.339457e-04 -2.673890e-01 1.692541e-01 7.979912e-02 2.154475e-01 5.103882e-02 1.214725e-01 5.548771e-02 9.437999e-02 -2.019792e-02 -4.107343e-02 -7.655974e-02 -6.902391e-02 -6.793116e-03 1.245845e-01 1.288936e-01 5.452199e-02 8.042032e-02 1.948902e-02 8.450081e-04 -1.743251e-02 -1.530378e-02 -1.166217e-02 1.366863e-03 9.580665e-03 3.479531e-02 1.635654e-02
<VARIANCE> 39
 1.349094e+01 4.024350e+01 2.122338e+01 2.446372e+01 2.356819e+01 2.507253e+01 2.544898e+01 3.127471e+01 2.340765e+01 2.577428e+01 2.474436e+01 1.796513e+01 1.811976e-02 7.653287e-01 1.045025e+00 9.282655e-01 1.284471e+00 1.500847e+00 1.606143e+00 1.672509e+00 1.858746e+00 1.769764e+00 1.840532e+00 1.643038e+00 1.442678e+00 1.350635e-03 1.658922e-01 2.574675e-01 2.077244e-01 2.521898e-01 3.050362e-01 3.498951e-01 3.428598e-01 3.922398e-01 3.980512e-01 3.737953e-01 3.190900e-01 2.924546e-01 4.281767e-04
<GCONST> 8.080063e+01
<MIXTURE> 6 2.279294e-01
<MEAN> 39
 -6.895048e+00 -2.597571e+00 -2.064187e-01 3.755758e+00 1.750917e+00 4.770616e+00 2.009688e+00 3.816390e+00 3.898125e+00 1.945812e+00 3.061028e+00 2.776256e+00 2.643125e-01 -2.313006e+00 -1.574045e+00 -1.854524e+00 -8.474784e-01 -5.541983e-01 -2.190536e-01 2.515954e-02 5.055647e-01 5.864146e-01 3.866391e-01 6.888315e-01 5.431631e-01 -8.871600e-02 5.734813e-01 5.355631e-01 3.502357e-01 -9.028693e-02 -8.725668e-02 -2.560775e-01 -1.258622e-01 -3.678116e-01 -1.633483e-01 -1.444297e-01 -3.804865e-01 -2.515243e-01 3.282124e-02
<VARIANCE> 39
 3.190814e+01 3.949092e+01 2.500966e+01 2.592564e+01 2.897795e+01 3.374385e+01 3.532796e+01 3.493460e+01 2.972635e+01 2.800685e+01 2.573067e+01 1.871898e+01 2.053023e-02 1.627317e+00 2.070493e+00 2.009215e+00 1.682603e+00 1.775500e+00 2.328650e+00 2.741302e+00 2.815237e+00 2.762941e+00 2.567318e+00 2.575810e+00 2.284630e+00 2.258951e-03 2.808785e-01 4.010211e-01 3.230100e-01 4.325565e-01 4.865594e-01 5.002199e-01 5.171124e-01 5.294985e-01 4.588447e-01 5.014841e-01 4.671851e-01 3.894660e-01 2.937377e-04
<GCONST> 9.367810e+01
~h "#i"
<BEGINHMM>
<NUMSTATES> 10
<STATE> 2
<NUMMIXES> 5
<MIXTURE> 1 5.316610e-02
<MEAN> 39
 -2.514754e+00 1.017243e+01 -6.351401e+00 -3.907562e+00 -6.458879e+00 -5.525998e+00 6.510882e-01 -1.528368e+00 3.003833e+00 4.297805e+00 6.932700e+00 1.150428e+01 8.575890e-01 -9.814860e-01 -1.791428e-01 -6.276503e-02 2.633297e-01 -2.095826e-01 -2.486809e-01 -1.169405e+00 -8.347288e-01 3.130514e-01 1.465391e+00 2.746425e+00 2.658171e+00 3.380825e-02 3.489811e-01 1.908129e-02 3.681629e-01 3.034522e-01 3.131045e-01 2.968725e-01 2.667462e-01 4.412217e-01 1.180774e-01 -1.415229e-01 -5.335287e-01 -8.363522e-01 -1.799006e-02
<VARIANCE> 39
 1.866505e+01 2.547752e+01 2.612256e+01 1.698117e+01 2.694653e+01 2.315794e+01 2.547856e+01 2.195749e+01 4.781898e+01 5.504557e+01 4.110539e+01 6.940411e+01 6.768479e-03 8.345959e-01 6.345500e-01 1.033389e+00 7.776554e-01 1.412728e+00 1.347142e+00 1.701173e+00 1.970915e+00 3.537441e+00 4.541721e+00 2.958533e+00 4.316920e+00 3.552046e-04 1.460526e-01 1.840575e-01 2.699679e-01 2.160913e-01 3.292198e-01 3.580388e-01 3.450740e-01 2.544053e-01 3.996137e-01 7.664504e-01 5.663549e-01 5.435440e-01 2.782187e-04
<GCONST> 8.433878e+01
<MIXTURE> 2 2.034958e-01
<MEAN> 39
 -1.343355e+00 1.010886e+01 3.498283e-01 -7.138456e+00 -2.092420e+00 -7.761845e+00 -2.286922e+00 1.487514e+00 1.237246e+00 -6.884424e-01 1.234787e+00 -9.225643e-01 7.950498e-01 -3.213653e-01 2.355516e+00 -1.070890e+00 1.769482e+00 -5.984423e-01 -9.573985e-01 -8.774150e-01 -9.656147e-01 -6.477315e-01 -7.806346e-01 5.047661e-01 -8.284084e-02 -5.324510e-03 2.496258e-01 -6.895868e-01 8.747147e-02 3.948275e-01 -5.055473e-01 7.046958e-01 5.339068e-02 -7.953532e-02 -3.310539e-01 2.496921e-02 -2.832067e-01 -7.784330e-02 3.739796e-03
<VARIANCE> 39
 8.901339e+00 2.947352e+01 2.451898e+01 3.102118e+01 2.021055e+01 2.910384e+01 4.726109e+01 3.120225e+01 3.264635e+01 3.821746e+01 3.709193e+01 3.532018e+01 9.276285e-03 6.472523e-01 1.584964e+00 1.323549e+00 1.783697e+00 2.726511e+00 4.240910e+00 2.752778e+00 2.578305e+00 3.568044e+00 5.207260e+00 4.130313e+00 4.055110e+00 3.373240e-04 9.566116e-02 2.503896e-01 2.790312e-01 6.171250e-01 4.951921e-01 4.935479e-01 4.842924e-01 6.137006e-01 5.650355e-01 6.280887e-01 5.335358e-01 6.320550e-01 3.689043e-05
<GCONST> 8.977533e+01
<MIXTURE> 3 3.261646e-01
<MEAN> 39
 -2.804818e-01 1.330443e+01 -1.102274e-01 -1.731129e+00 -5.817410e+00 -4.623512e+00 -8.620145e+00 4.179549e-01 -2.160988e+00 -2.286301e+00 1.431158e+00 -2.988700e+00 7.859979e-01 -2.167500e-01 9.741928e-01 -9.264352e-02 4.024226e-01 -3.782534e-01 1.262159e-01 -5.495271e-01 7.114749e-02 -4.195251e-01 -1.746186e-01 9.766611e-02 -1.214710e-01 1.297996e-02 2.711682e-02 -2.452938e-01 3.641395e-02 -2.297453e-01 9.740578e-02 1.586342e-02 2.160750e-01 7.787095e-04 1.018729e-01 5.341781e-02 -8.531982e-02 1.158336e-01 6.357251e-04
<VARIANCE> 39
 1.037375e+01 3.286673e+01 2.288221e+01 2.448476e+01 2.188066e+01 2.529669e+01 3.649503e+01 3.297729e+01 3.542000e+01 3.392141e+01 4.175980e+01 3.157585e+01 9.419534e-03 5.643826e-01 8.934572e-01 1.075809e+00 1.379959e+00 1.314557e+00 1.636155e+00 2.002150e+00 1.754425e+00 1.982558e+00 1.952995e+00 1.848755e+00 2.088530e+00 3.798134e-04 7.736686e-02 1.554078e-01 1.864021e-01 2.641938e-01 2.329186e-01 2.942515e-01 3.066075e-01 3.248390e-01 3.465430e-01 3.640096e-01 3.164413e-01 3.107296e-01 5.251716e-05
<GCONST> 7.675590e+01
<MIXTURE> 4 2.239013e-01
<MEAN> 39
 2.290765e+00 1.325009e+01 -2.250646e+00 -6.007102e-01 -3.933343e+00 -3.199881e+00 1.539173e+00 2.097404e+00 5.771925e-01 2.616457e+00 -1.794444e+00 4.598374e+00 7.189333e-01 -2.679228e-01 3.682528e-01 -4.051427e-01 -1.547872e-01 -7.675576e-01 -5.503662e-01 -8.854125e-01 -7.111540e-01 -8.162423e-01 -7.486167e-01 -8.091627e-01 -3.586029e-02 2.928589e-02 -2.233925e-01 -3.869952e-01 -1.140744e-01 -1.852688e-01 -5.623254e-02 -2.549649e-01 -2.679520e-01 -2.810992e-01 -2.261654e-01 -3.186168e-01 -4.759150e-02 -2.633367e-01 2.654949e-03
<VARIANCE> 39
 1.142857e+01 2.663637e+01 1.882709e+01 1.794637e+01 1.360964e+01 1.542039e+01 2.318501e+01 2.641927e+01 2.341751e+01 3.029113e+01 3.523363e+01 3.556967e+01 1.455669e-02 8.171957e-01 1.404233e+00 8.863950e-01 9.954239e-01 1.124064e+00 1.639182e+00 1.759928e+00 1.745218e+00 1.896065e+00 2.037596e+00 2.696474e+00 2.145103e+00 8.897884e-04 1.025351e-01 2.414437e-01 1.588097e-01 2.223697e-01 2.616250e-01 2.521934e-01 2.838457e-01 2.870253e-01 2.836427e-01 3.054905e-01 4.961887e-01 4.547547e-01 1.914209e-04
<GCONST> 7.751464e+01
<MIXTURE> 5 1.932671e-01
<MEAN> 39
 -7.495365e-01 1.168699e+01 -4.125765e+00 -3.126279e+00 -7.227362e+00 -6.399501e+00 -3.140904e+00 -1.075952e+00 -3.391951e+00 -2.271756e+00 -3.812351e+00 8.693293e-01 8.237003e-01 -8.850074e-01 -2.157473e-01 -5.038263e-01 -7.682718e-02 -4.939374e-01 -7.440351e-01 -1.015486e+00 -1.249398e+00 -1.172218e+00 -1.177400e+00 -8.851760e-01 -2.557842e-01 3.598406e-02 9.929584e-02 -2.982417e-01 3.475939e-01 3.834329e-01 4.871901e-01 4.308349e-01 3.063599e-01 3.057926e-01 4.591794e-01 4.476258e-01 4.075360e-01 2.711968e-01 -1.722854e-02
<VARIANCE> 39
 1.361086e+01 3.873570e+01 1.883626e+01 1.722694e+01 1.786499e+01 2.385379e+01 3.352796e+01 2.898185e+01 2.459751e+01 2.731062e+01 3.998132e+01 4.030439e+01 9.264336e-03 5.097068e-01 7.430629e-01 8.436359e-01 1.276327e+00 1.221091e+00 1.386255e+00 1.500630e+00 2.116191e+00 1.629033e+00 1.752938e+00 3.827497e+00 4.126071e+00 5.272246e-04 1.408319e-01 3.544296e-01 1.914181e-01 2.153355e-01 2.743816e-01 3.338676e-01 3.370828e-01 3.142525e-01 2.701829e-01 3.213699e-01 4.262001e-01 4.757674e-01 3.801995e-04
<GCONST> 8.018416e+01
<STATE> 3
<NUMMIXES> 5
<MIXTURE> 1 1.834866e-01
<MEAN> 39
 -1.845981e+00 1.124444e+01 -5.490503e+00 -2.813722e+00 -7.748630e+00 -7.861168e+00 -4.912117e+00 -3.805768e+00 -4.297177e+00 -2.800636e+00 -3.837000e+00 2.323977e+00 8.723682e-01 7.458973e-02 1.813268e-01 1.157906e-01 4.908706e-01 1.801237e-01 2.226155e-01 -3.510923e-02 -1.266045e-01 1.054590e-01 -9.607876e-03 1.528677e-01 2.754228e-01 1.280457e-02 2.112059e-01 8.882378e-02 2.403867e-01 1.158681e-01 2.982826e-01 2.661244e-01 3.720586e-01 4.386526e-01 3.856874e-01 3.195324e-01 2.663444e-01 7.041308e-02 -4.375866e-03
<VARIANCE> 39
 1.445311e+01 3.155243e+01 2.071902e+01 1.839485e+01 2.221205e+01 2.684488e+01 3.132693e+01 2.755724e+01 3.712528e+01 3.527911e+01 5.629986e+01 6.569640e+01 7.162455e-03 3.231305e-01 6.035169e-01 7.893503e-01 9.573399e-01 1.158570e+00 1.220713e+00 1.297614e+00 1.419406e+00 1.336980e+00 1.521764e+00 1.473530e+00 1.691669e+00 1.245749e-04 5.892622e-02 9.399847e-02 1.079548e-01 1.547992e-01 1.960548e-01 2.013152e-01 2.078988e-01 2.431971e-01 2.469024e-01 2.557946e-01 3.792763e-01 3.616625e-01 2.825040e-05
<GCONST> 6.829688e+01
<MIXTURE> 2 1.807581e-01
<MEAN> 39
 -2.115892e+00 1.325994e+01 -1.003481e+00 -1.884500e+00 -3.662446e+00 -4.936530e+00 -6.235571e+00 -1.433895e-01 -1.659999e+00 -2.506027e+00 2.084756e+00 -1.537545e-01 8.885372e-01 1.148725e-02 2.319358e-02 -6.239623e-03 -4.702319e-02 8.465400e-02 -1.276630e-02 7.026637e-02 -2.218042e-02 6.927593e-02 -5.057439e-03 1.187846e-02 -6.723335e-03 5.978005e-05 6.088552e-03 -2.982731e-02 6.833188e-03 -4.136479e-02 -1.191136e-02 -2.559702e-02 3.961098e-03 -2.645354e-03 1.395832e-02 1.624415e-02 -1.222862e-02 -9.396860e-03 -9.957869e-04
<VARIANCE> 39
 7.976315e+00 4.276627e+01 1.113719e+01 9.769466e+00 1.086390e+01 1.744725e+01 2.673785e+01 1.528246e+01 2.070028e+01 2.743828e+01 3.391347e+01 3.232053e+01 7.124934e-03 5.612420e-02 9.523191e-02 1.163768e-01 1.666014e-01 1.708666e-01 2.037053e-01 2.039290e-01 2.309276e-01 2.146892e-01 2.292180e-01 1.742742e-01 1.982438e-01 3.754082e-05 8.477994e-03 1.584714e-02 2.037701e-02 2.516783e-02 2.881322e-02 3.344654e-02 3.413809e-02 3.622810e-02 4.066965e-02 3.833966e-02 2.977651e-02 3.924927e-02 3.730628e-06
<GCONST> 1.385354e+01
<MIXTURE> 3 1.808970e-01
<MEAN> 39
 -2.086148e+00 1.331825e+01 -1.018205e+00 -1.894252e+00 -3.671193e+00 -4.968976e+00 -6.278635e+00 -1.468764e-01 -1.683351e+00 -2.534850e+00 2.055714e+00 -2.451183e-01 8.874516e-01 1.138210e-02 2.307257e-02 -7.455435e-03 -4.854767e-02 8.345567e-02 -1.298124e-02 7.015507e-02 -2.255969e-02 6.991863e-02 -6.333470e-03 1.096124e-02 -6.838242e-03 7.342461e-05 6.206391e-03 -2.993198e-02 7.052358e-03 -4.133363e-02 -1.170216e-02 -2.525048e-02 3.775737e-03 -2.341484e-03 1.400424e-02 1.632706e-02 -1.176842e-02 -8.869836e-03 -9.949659e-04
<VARIANCE> 39
 7.741935e+00 4.297259e+01 1.114720e+01 9.745285e+00 1.090229e+01 1.755092e+01 2.674335e+01 1.531327e+01 2.064843e+01 2.704503e+01 3.387401e+01 3.105458e+01 7.161840e-03 5.555470e-02 9.439576e-02 1.151816e-01 1.658769e-01 1.692849e-01 2.027697e-01 2.029501e-01 2.302479e-01 2.146531e-01 2.291449e-01 1.734988e-01 1.975020e-01 3.754082e-05 8.425961e-03 1.578306e-02 2.025430e-02 2.517071e-02 2.883662e-02 3.338828e-02 3.398543e-02 3.626803e-02 4.070612e-02 3.837884e-02 2.974625e-02 3.904111e-02 3.730628e-06
<GCONST> 1.369678e+01
<MIXTURE> 4 1.115971e-01
<MEAN> 39
 -1.337308e+00 1.302925e+01 -5.376864e+00 -1.774616e+00 -7.677648e+00 -8.183954e+00 -5.261611e+00 -2.609288e+00 -4.316769e+00 -3.187335e+00 -4.849512e+00 2.606312e+00 8.493465e-01 -1.151534e-01 -2.455367e-01 -3.894991e-01 -3.061069e-01 -3.728485e-01 -4.198533e-01 -4.374097e-01 -4.202462e-01 -1.953707e-01 -2.380262e-01 -2.763152e-01 -3.395433e-01 3.089579e-03 1.748794e-02 1.312866e-02 3.706886e-02 -3.228698e-02 4.589335e-02 5.653489e-02 8.378558e-02 5.680553e-02 8.097749e-02 3.262990e-02 5.222941e-02 -4.782875e-02 -1.898682e-03
<VARIANCE> 39
 1.024968e+01 2.357197e+01 1.476622e+01 1.564414e+01 1.580573e+01 1.955971e+01 2.491372e+01 3.272934e+01 3.087270e+01 3.322866e+01 3.848942e+01 5.588977e+01 6.794287e-03 7.908483e-02 1.607120e-01 2.174694e-01 3.059452e-01 3.515269e-01 4.770341e-01 4.864415e-01 4.814212e-01 4.773080e-01 3.905045e-01 5.213056e-01 5.689430e-01 5.495592e-05 1.770441e-02 2.409404e-02 4.100988e-02 5.092148e-02 7.026362e-02 8.432401e-02 9.252035e-02 8.379526e-02 8.316830e-02 6.826040e-02 8.397844e-02 9.390759e-02 4.048390e-06
<GCONST> 3.529230e+01
<MIXTURE> 5 3.432539e-01
<MEAN> 39
 -1.379022e+00 1.582720e+01 4.143451e-01 -1.873131e+00 -5.965762e+00 -4.097316e+00 -9.902666e+00 7.900083e-01 -1.521181e+00 -3.800437e+00 3.971596e+00 -3.174637e+00 8.506249e-01 -5.267195e-02 2.328934e-01 -7.974473e-04 1.664649e-01 8.900729e-02 5.420392e-02 -3.198319e-02 5.416801e-02 1.309599e-02 -8.170900e-02 1.598423e-02 -6.642911e-02 6.533447e-03 4.063801e-02 -1.192168e-01 -1.684109e-02 -8.076573e-02 4.582049e-02 -5.468196e-02 4.553321e-02 -4.072231e-02 4.784060e-02 5.312479e-02 -4.970396e-02 3.881983e-02 -2.021911e-03
<VARIANCE> 39
 8.535606e+00 2.905290e+01 1.192010e+01 1.429952e+01 2.163592e+01 2.190696e+01 2.729695e+01 2.593758e+01 2.694971e+01 3.619776e+01 2.735586e+01 2.195037e+01 5.173738e-03 2.169893e-01 2.870502e-01 3.466246e-01 4.465618e-01 4.636061e-01 5.947616e-01 6.439624e-01 7.304944e-01 8.041592e-01 6.540816e-01 6.663036e-01 7.178290e-01 1.127089e-04 3.827086e-02 5.413772e-02 6.709503e-02 8.857121e-02 9.442502e-02 1.052388e-01 1.193200e-01 1.394213e-01 1.547953e-01 1.309431e-01 1.181744e-01 1.192178e-01 1.250258e-05
<GCONST> 4.645111e+01
<STATE> 4
<NUMMIXES> 5
<MIXTURE> 1 1.973554e-01
<MEAN> 39
 -1.363013e+00 7.945166e+00 -5.461789e+00 -2.585761e+00 -7.386189e+00 -7.255576e+00 -4.559840e+00 -4.400945e+00 -4.418695e+00 -3.697115e+00 -5.825612e+00 6.141111e-02 9.143923e-01 7.556514e-02 4.955657e-02 -2.973677e-02 4.329670e-02 3.023072e-02 6.428264e-02 6.734096e-02 4.262105e-02 1.085016e-01 -6.690357e-03 9.317505e-02 -6.063855e-02 -9.195055e-04 1.326983e-01 2.200385e-01 3.065523e-01 2.504716e-01 3.839460e-01 3.189260e-01 3.861639e-01 3.975684e-01 3.439312e-01 2.961097e-01 2.519466e-01 1.990829e-01 -1.304176e-03
<VARIANCE> 39
 1.277919e+01 4.611123e+01 1.089811e+01 1.128277e+01 1.825057e+01 2.396496e+01 1.348734e+01 1.831886e+01 1.507265e+01 2.002430e+01 2.389998e+01 2.504840e+01 5.177028e-03 1.433814e-01 2.611400e-01 3.913119e-01 4.929357e-01 7.108773e-01 6.720483e-01 6.769177e-01 7.042377e-01 6.751651e-01 6.768344e-01 6.829403e-01 5.527471e-01 3.754082e-05 1.879502e-02 4.174984e-02 5.937012e-02 6.949434e-02 9.143899e-02 8.772763e-02 9.258849e-02 9.979197e-02 1.017291e-01 1.034414e-01 1.130911e-01 9.745580e-02 3.730628e-06
<GCONST> 3.923031e+01
<MIXTURE> 2 1.300830e-01
<MEAN> 39
 1.640271e-01 1.249526e+01 -3.255727e+00 -3.488934e-01 -5.221807e+00 -4.865779e+00 -3.024975e+00 -7.299378e-01 -9.637099e-01 -7.566037e-01 1.438776e-01 3.336134e+00 8.896337e-01 1.485595e-01 1.178414e-01 9.026868e-02 1.844961e-01 2.167862e-01 1.421372e-01 2.720633e-01 5.995646e-02 4.896926e-01 4.624277e-01 3.299296e-01 8.955436e-02 4.792377e-03 -2.492008e-02 -1.547578e-01 -9.387171e-02 -1.745685e-01 -4.452634e-02 -1.072661e-01 -7.451864e-02 -1.403654e-01 -7.489559e-02 -3.715374e-02 -8.580057e-02 -1.745908e-01 -2.351108e-03
<VARIANCE> 39
 1.444748e+01 3.335874e+01 2.353511e+01 1.773840e+01 2.520366e+01 3.330230e+01 2.848184e+01 2.829755e+01 3.327875e+01 4.806982e+01 6.802954e+01 6.891226e+01 5.494057e-03 3.437006e-01 7.233802e-01 9.235128e-01 1.221139e+00 1.446925e+00 1.463732e+00 1.474732e+00 1.533999e+00 1.494347e+00 1.476583e+00 1.768400e+00 1.793323e+00 1.079036e-04 5.235120e-02 8.881878e-02 1.606706e-01 1.707008e-01 2.561798e-01 2.659863e-01 2.395604e-01 3.006697e-01 2.819112e-01 3.117768e-01 2.984461e-01 2.749558e-01 1.445916e-05
<GCONST> 7.068648e+01
<MIXTURE> 3 1.897514e-01
<MEAN> 39
 6.506781e-02 1.425714e+01 -1.598689e+00 -3.215249e-01 -4.639838e+00 -4.495660e+00 -7.467721e+00 2.219953e-01 -1.618048e+00 -1.646350e+00 8.000424e-01 -1.856095e+00 8.833916e-01 8.952973e-02 -1.419885e-01 4.901353e-02 -2.785891e-02 1.658736e-01 -2.115799e-01 8.327423e-02 -1.224546e-01 3.014359e-01 1.535665e-01 -2.014822e-02 -1.270626e-01 -2.707163e-03 -2.037134e-03 -1.079536e-01 5.589247e-02 -1.416662e-01 8.568148e-02 -7.008413e-02 9.548929e-02 -1.658943e-02 1.725427e-02 -9.608092e-03 -2.164572e-02 2.434157e-02 -2.107947e-03
<VARIANCE> 39
 1.226518e+01 3.297242e+01 1.563318e+01 2.138721e+01 1.911872e+01 2.728304e+01 3.161908e+01 2.125146e+01 2.870191e+01 3.412247e+01 3.785320e+01 2.971245e+01 3.932437e-03 1.668888e-01 2.297470e-01 4.110214e-01 5.717124e-01 5.342914e-01 6.378985e-01 7.588866e-01 6.243215e-01 7.599214e-01 7.120731e-01 6.108860e-01 6.207551e-01 5.755835e-05 4.129703e-02 6.144077e-02 8.638880e-02 1.018572e-01 1.056649e-01 1.483924e-01 1.626941e-01 1.384464e-01 1.674082e-01 1.455159e-01 1.413104e-01 1.473363e-01 6.155536e-06
<GCONST> 4.851029e+01
<MIXTURE> 4 2.280885e-01
<MEAN> 39
 -4.491394e-01 8.226730e+00 -2.373972e+00 -2.038877e-02 -3.040045e+00 -3.850091e+00 -1.030715e+00 -1.114835e+00 -1.782682e+00 -4.470321e-01 -2.859467e+00 2.162269e+00 9.272009e-01 -1.574273e-01 -3.840255e-01 -4.849102e-01 -4.621417e-01 -4.861165e-01 -5.801359e-01 -3.869599e-01 -5.496712e-01 -3.914135e-01 -4.064870e-01 -3.415400e-01 -4.144070e-01 -8.738373e-04 -6.757911e-02 -1.016752e-01 -1.228272e-01 -1.667046e-01 -1.483452e-01 -1.554527e-01 -1.537922e-01 -1.209179e-01 -1.216557e-01 -1.434642e-01 -7.102144e-02 -1.347732e-01 -9.538797e-04
<VARIANCE> 39
 1.086165e+01 4.439676e+01 1.017754e+01 1.045792e+01 1.660111e+01 2.528895e+01 1.248691e+01 1.720289e+01 1.457291e+01 1.530876e+01 2.265567e+01 2.388348e+01 4.053818e-03 1.343144e-01 2.201919e-01 3.236796e-01 4.192747e-01 4.944317e-01 4.720051e-01 6.304296e-01 6.376542e-01 6.282799e-01 5.623121e-01 6.583417e-01 5.422711e-01 3.754082e-05 2.052933e-02 4.836268e-02 6.145984e-02 7.412928e-02 9.349880e-02 1.054365e-01 1.036413e-01 1.186845e-01 9.619212e-02 9.728891e-02 1.066422e-01 9.622732e-02 3.730628e-06
<GCONST> 3.690726e+01
<MIXTURE> 5 2.547142e-01
<MEAN> 39
 -1.958524e-01 9.280332e+00 -2.945765e+00 2.442118e-01 -4.127758e+00 -3.778964e+00 -1.231397e+00 -1.406022e+00 -1.730090e+00 -1.069086e+00 -3.079300e+00 2.058327e+00 9.165085e-01 3.234874e-01 3.930596e-01 4.708664e-01 5.323434e-01 6.255010e-01 5.284070e-01 6.434915e-01 5.186111e-01 5.816386e-01 5.314976e-01 4.560830e-01 3.470858e-01 -1.339535e-03 -4.189070e-02 -1.034465e-01 -9.119118e-02 -1.555520e-01 -9.440719e-02 -1.608541e-01 -1.124030e-01 -1.305132e-01 -9.791132e-02 -5.501209e-02 -6.772790e-02 -1.090966e-01 -1.106505e-03
<VARIANCE> 39
 1.143264e+01 4.749335e+01 1.202656e+01 1.102535e+01 1.779726e+01 1.963409e+01 1.312615e+01 2.100075e+01 1.545073e+01 1.811388e+01 2.512117e+01 2.773776e+01 5.106009e-03 1.404691e-01 2.061650e-01 3.066123e-01 3.896153e-01 5.243273e-01 5.587077e-01 6.682028e-01 6.759828e-01 5.642687e-01 6.267455e-01 5.852205e-01 6.142464e-01 3.754082e-05 2.304209e-02 4.595020e-02 6.713194e-02 8.462305e-02 1.176176e-01 1.084721e-01 1.237033e-01 1.218135e-01 1.085066e-01 1.153683e-01 1.202043e-01 9.597145e-02 3.730628e-06
<GCONST> 3.937901e+01
<STATE> 5
<NUMMIXES> 5
<MIXTURE> 1 1.364648e-01
<MEAN> 39
 -3.430678e+00 1.013985e+01 -6.552164e+00 -3.746139e+00 -7.585438e+00 -5.656441e+00 1.922045e+00 3.042985e+00 1.283384e+01 1.481322e+01 1.356064e+01 1.094849e+01 9.360895e-01 1.998751e-01 1.936279e-01 2.237660e-01 3.306011e-02 2.382464e-01 -7.656965e-03 1.508479e-01 2.239274e-01 1.545674e-01 1.246579e-01 -1.525761e-01 -2.939320e-01 6.482879e-04 2.625678e-02 4.688704e-02 9.753507e-02 -1.472816e-02 2.051008e-01 2.939741e-02 4.225862e-02 -6.576212e-02 -1.195729e-01 -8.377160e-02 -8.463430e-02 -4.707736e-02 -2.541887e-03
<VARIANCE> 39
 2.028457e+01 3.282410e+01 2.953936e+01 1.891653e+01 2.645217e+01 1.173449e+01 2.858742e+01 4.154004e+01 5.129568e+01 2.739377e+01 4.043707e+01 9.871058e+01 3.710153e-03 6.130696e-01 6.749265e-01 8.533439e-01 1.026614e+00 1.439915e+00 9.447231e-01 7.181934e-01 9.321879e-01 1.246099e+00 1.191942e+00 1.216313e+00 1.474090e+00 4.680809e-05 1.040852e-01 1.507809e-01 1.819021e-01 2.243118e-01 2.315149e-01 1.923658e-01 1.574502e-01 1.649363e-01 2.416416e-01 2.398818e-01 2.176818e-01 1.972748e-01 6.996665e-06
<GCONST> 6.518478e+01
<MIXTURE> 2 1.422640e-01
<MEAN> 39
 -2.575864e+00 1.636807e+01 4.114924e-01 -4.426352e+00 -4.385400e+00 -5.946115e+00 -1.026494e+01 -1.957452e+00 2.005440e+00 -5.481859e+00 6.062585e+00 -4.003523e+00 8.866926e-01 -1.999558e-01 -6.949735e-01 3.879736e-01 -1.380683e+00 7.234294e-01 -4.611404e-01 5.473372e-01 1.196712e-01 3.997865e-01 6.062859e-01 -5.371170e-01 6.283351e-01 4.508791e-04 1.204238e-01 -3.676026e-01 2.777344e-01 -2.420269e-01 6.032338e-02 1.946594e-01 1.957127e-01 3.142508e-01 -8.908610e-02 1.967774e-01 -3.585778e-01 1.690892e-01 -3.571716e-03
<VARIANCE> 39
 9.002453e+00 2.135853e+01 1.622143e+01 1.459985e+01 1.639403e+01 1.799907e+01 2.391118e+01 2.324584e+01 2.731339e+01 2.392394e+01 1.839882e+01 1.523137e+01 4.755867e-03 2.808617e-01 4.787484e-01 5.430411e-01 9.240595e-01 6.363233e-01 8.945824e-01 9.531617e-01 1.165501e+00 1.080405e+00 9.382339e-01 1.000179e+00 6.935551e-01 1.150335e-04 5.044808e-02 9.411921e-02 1.293691e-01 1.789146e-01 1.265201e-01 1.598366e-01 1.724202e-01 1.705438e-01 1.882039e-01 1.525626e-01 1.521271e-01 1.302832e-01 1.823132e-05
<GCONST> 5.367667e+01
<MIXTURE> 3 1.391575e-01
<MEAN> 39
 -2.212178e+00 1.573058e+01 1.128534e+00 -3.785058e+00 -5.319881e+00 -4.688767e+00 -1.032058e+01 -2.277657e-01 -4.881186e-01 -4.629580e+00 4.837523e+00 -4.905031e+00 8.653121e-01 1.061786e-01 -3.670146e-01 3.820992e-01 -5.710486e-01 5.206144e-01 -2.304808e-01 3.573509e-01 5.298890e-03 4.851864e-01 1.324975e-01 -4.591225e-02 1.643724e-01 -8.632437e-03 1.944951e-01 -2.303333e-01 1.744284e-01 -7.588789e-05 2.288420e-01 1.328802e-01 3.070675e-01 8.153606e-02 2.325232e-02 1.478513e-01 -2.221597e-01 1.636553e-01 -5.849634e-03
<VARIANCE> 39
 7.590847e+00 2.824533e+01 1.307106e+01 2.149438e+01 1.658406e+01 2.212864e+01 2.730819e+01 1.988430e+01 2.534656e+01 2.308084e+01 1.605256e+01 1.895660e+01 5.135236e-03 3.166983e-01 4.261709e-01 4.494730e-01 9.509954e-01 5.992218e-01 7.220647e-01 9.647360e-01 9.537116e-01 1.404907e+00 1.081112e+00 9.802434e-01 8.232504e-01 1.210759e-04 5.350895e-02 8.569351e-02 1.352025e-01 1.715950e-01 1.621767e-01 1.637353e-01 2.295398e-01 1.706215e-01 2.015851e-01 2.118681e-01 1.451587e-01 1.613331e-01 2.042302e-05
<GCONST> 5.539101e+01
<MIXTURE> 4 2.782746e-01
<MEAN> 39
 -6.883107e-01 1.309371e+01 -5.531888e+00 -1.441564e+00 -7.169742e+00 -8.394379e+00 -3.403204e+00 -2.994747e+00 -3.495907e+00 -1.865788e+00 -5.248188e+00 1.424089e+00 8.837720e-01 -3.906844e-01 -5.053786e-01 -1.127582e-01 -1.115324e+00 3.098115e-01 -7.623848e-01 1.540629e-01 -3.745180e-01 1.205800e-01 -5.382620e-01 2.879457e-01 -8.407502e-01 -6.001558e-03 1.134740e-01 -1.567476e-01 3.424067e-01 -2.055978e-01 4.016936e-01 8.486104e-02 1.351858e-01 1.824219e-01 9.702930e-02 4.563388e-02 2.262183e-01 -8.292581e-02 -4.263373e-03
<VARIANCE> 39
 1.379807e+01 3.003925e+01 1.614933e+01 2.200190e+01 1.741415e+01 2.721267e+01 1.975585e+01 2.899563e+01 2.134802e+01 2.264984e+01 3.123624e+01 4.701867e+01 4.858737e-03 4.385883e-01 4.775111e-01 8.182741e-01 1.035466e+00 1.289153e+00 1.353680e+00 1.788121e+00 1.431776e+00 1.523744e+00 1.227949e+00 1.574298e+00 1.345941e+00 8.478235e-05 7.512315e-02 1.117197e-01 1.732354e-01 2.231994e-01 2.120737e-01 2.503900e-01 3.743973e-01 3.258554e-01 2.915693e-01 3.005764e-01 2.797094e-01 2.829992e-01 1.605879e-05
<GCONST> 6.692231e+01
<MIXTURE> 5 3.038374e-01
<MEAN> 39
 3.669388e+00 1.095193e+01 -4.171442e+00 1.271984e+00 -2.821168e+00 -4.084359e+00 -1.877147e+00 -1.322255e+00 1.449710e+00 1.167810e+00 -1.233926e+00 1.418031e+00 8.382056e-01 3.588965e-01 -2.520247e-01 -1.743035e-02 2.105808e-02 2.422192e-01 -1.986284e-01 -2.696674e-01 -6.060882e-02 -7.051341e-03 3.363752e-01 1.769895e-01 1.426594e-01 -6.390409e-03 -1.201239e-01 -1.609575e-01 5.197928e-02 -2.125411e-01 -1.009380e-01 -1.888180e-01 -1.552014e-01 -1.315748e-01 -2.226465e-01 -2.408581e-01 -7.321513e-02 -7.678773e-02 -2.183084e-03
<VARIANCE> 39
 1.508919e+01 4.022102e+01 2.838412e+01 1.424929e+01 2.185118e+01 2.425978e+01 2.181769e+01 3.087301e+01 2.108223e+01 4.099743e+01 5.125005e+01 5.435514e+01 1.138053e-02 6.127660e-01 7.740975e-01 1.312792e+00 1.085897e+00 1.408784e+00 1.843501e+00 1.489031e+00 1.820950e+00 1.689357e+00 2.252671e+00 2.430499e+00 1.940483e+00 1.094190e-04 8.176281e-02 1.221685e-01 2.588855e-01 2.009846e-01 2.045321e-01 2.931728e-01 2.496218e-01 3.180526e-01 2.452432e-01 3.430266e-01 3.343120e-01 3.757381e-01 1.043850e-05
<GCONST> 7.349036e+01
<STATE> 6
<NUMMIXES> 5
<MIXTURE> 1 1.575186e-01
<MEAN> 39
 -3.594543e+00 1.416713e+01 -4.941213e+00 -5.197702e+00 -3.334124e+00 -1.170693e+01 -9.061199e-02 -3.104064e+00 1.100893e-01 -2.938451e+00 -3.067896e+00 1.391298e-01 8.686761e-01 -6.426377e-02 -1.561932e+00 1.324341e+00 -2.722404e+00 1.873085e+00 -3.205864e-01 1.207000e+00 1.472187e+00 4.164086e-01 6.197326e-01 4.183701e-01 -7.353581e-01 -9.183784e-03 4.140170e-01 -6.130633e-01 5.067874e-01 1.737969e-01 -1.423685e-01 1.008199e+00 -2.502616e-01 4.750308e-01 -1.781200e-01 1.196816e-01 1.213131e-01 3.544702e-04 -5.016646e-03
<VARIANCE> 39
 1.428909e+01 3.070553e+01 1.560510e+01 1.924830e+01 2.332918e+01 2.758856e+01 3.529990e+01 3.236382e+01 2.228807e+01 2.390946e+01 2.348910e+01 3.043503e+01 5.387194e-03 6.468145e-01 1.329819e+00 1.858553e+00 1.302025e+00 1.989091e+00 2.305509e+00 3.172382e+00 3.145314e+00 3.328757e+00 2.746459e+00 1.922481e+00 2.221929e+00 2.079017e-04 1.216823e-01 1.938424e-01 2.153323e-01 3.876791e-01 6.506244e-01 2.811701e-01 5.500206e-01 4.008572e-01 4.322173e-01 4.857602e-01 2.594934e-01 3.426065e-01 4.329950e-05
<GCONST> 8.087460e+01
<MIXTURE> 2 2.032147e-01
<MEAN> 39
 -2.218526e+00 1.436220e+01 2.112698e+00 -6.720479e+00 -3.606111e+00 -6.409396e+00 -9.718288e+00 -9.829455e-01 1.327431e+00 -4.423180e+00 5.190615e+00 -3.620938e+00 8.680650e-01 5.718592e-01 -1.261504e+00 9.560965e-01 -8.704132e-01 7.970920e-01 7.735804e-01 1.113797e+00 3.954583e-01 4.535139e-01 3.723550e-01 -1.027691e+00 6.331726e-01 -1.929455e-02 2.526193e-01 -2.206866e-01 1.118849e-01 5.884044e-01 1.119079e-01 6.342760e-01 3.494005e-01 1.884466e-01 -1.668481e-01 3.276019e-02 -3.525240e-01 -2.779179e-03 -1.108378e-02
<VARIANCE> 39
 7.223674e+00 2.436135e+01 1.474224e+01 2.277366e+01 1.616962e+01 1.786761e+01 2.235793e+01 2.138690e+01 2.869142e+01 2.246397e+01 1.507730e+01 1.828191e+01 4.913390e-03 4.833466e-01 9.971510e-01 1.390154e+00 2.006092e+00 1.441819e+00 1.216341e+00 1.854394e+00 2.084898e+00 1.640768e+00 2.254864e+00 1.723959e+00 2.076645e+00 2.370221e-04 7.826605e-02 1.523440e-01 1.389867e-01 2.775241e-01 2.747776e-01 1.591803e-01 2.323832e-01 2.233405e-01 3.132609e-01 2.700085e-01 2.940186e-01 2.449147e-01 4.919449e-05
<GCONST> 6.892472e+01
<MIXTURE> 3 2.393142e-01
<MEAN> 39
 1.495783e+00 9.773233e+00 -1.891262e-01 -9.317257e-01 -2.187916e+00 -4.520649e+00 -5.203503e+00 -1.008040e-01 -5.732883e-01 -4.805844e-01 6.272231e-01 -8.948004e-01 8.270778e-01 5.535349e-01 -4.550419e-01 3.994488e-01 -1.265911e-02 5.216070e-01 1.399089e-02 4.118081e-01 -2.208615e-02 3.969431e-03 2.379805e-01 -2.187035e-01 -2.116073e-01 -2.276192e-02 1.874592e-02 -1.277529e-01 1.335878e-01 2.935172e-01 1.732552e-01 2.051387e-01 2.180775e-01 -5.660217e-02 -8.809349e-02 -4.303256e-02 -8.692658e-02 -2.849090e-02 -6.333698e-03
<VARIANCE> 39
 1.559656e+01 4.730027e+01 1.333319e+01 1.797901e+01 1.406072e+01 2.090629e+01 3.159395e+01 1.556918e+01 2.746039e+01 2.318418e+01 2.287758e+01 2.031230e+01 6.683618e-03 6.121753e-01 6.653196e-01 1.244721e+00 1.020029e+00 1.488564e+00 1.124326e+00 2.284364e+00 1.798895e+00 1.807471e+00 2.050133e+00 1.745544e+00 1.744400e+00 1.292700e-04 9.842884e-02 1.011483e-01 1.578022e-01 1.525379e-01 1.413765e-01 1.938468e-01 2.701293e-01 2.489776e-01 2.990192e-01 1.968230e-01 2.436021e-01 2.303006e-01 2.707252e-05
<GCONST> 6.710703e+01
<MIXTURE> 4 1.591057e-01
<MEAN> 39
 -2.095466e+00 1.024111e+01 -5.628648e+00 -2.843716e+00 -3.863206e+00 -6.098045e+00 1.342223e+00 -8.763939e-01 4.334578e+00 6.978695e+00 8.697134e+00 1.163824e+01 9.117118e-01 -1.210907e-01 -7.442312e-01 6.876308e-01 -1.112299e+00 7.005590e-01 -6.578813e-01 -2.590187e-01 8.449025e-02 -5.560816e-01 -8.529986e-02 -4.335366e-01 -7.168825e-01 -1.167810e-02 2.700291e-01 -2.701917e-01 3.941374e-01 5.293201e-02 -1.013191e-01 1.761244e-01 -3.845620e-01 4.576612e-02 -3.221358e-01 -5.201520e-01 -6.014355e-01 -7.180600e-01 -8.879233e-03
<VARIANCE> 39
 2.319521e+01 2.789480e+01 2.565934e+01 2.158158e+01 3.738993e+01 3.076989e+01 2.401384e+01 2.574717e+01 5.689217e+01 5.686728e+01 5.183295e+01 1.092071e+02 5.746474e-03 8.117062e-01 9.921668e-01 1.788670e+00 1.816452e+00 2.160296e+00 1.424190e+00 2.016145e+00 1.771376e+00 1.130285e+00 2.196370e+00 2.553036e+00 2.928876e+00 1.928155e-04 1.699852e-01 2.197234e-01 3.807622e-01 2.784136e-01 3.699460e-01 4.154420e-01 4.444320e-01 3.282515e-01 3.044778e-01 5.179730e-01 3.295443e-01 6.263060e-01 3.864115e-05
<GCONST> 8.431571e+01
<MIXTURE> 5 2.408470e-01
<MEAN> 39
 -4.578785e-01 9.988964e+00 -5.469854e+00 -4.694471e+00 -6.857284e+00 -1.006818e+01 -5.251653e+00 -3.976633e+00 -5.097139e+00 -4.119720e+00 -5.738509e+00 -2.490951e+00 8.587486e-01 4.763330e-01 -2.832749e-01 1.085567e+00 -1.915617e-01 1.093714e+00 4.433023e-01 2.173996e-01 3.287931e-01 1.638861e-01 8.551726e-02 1.048824e+00 -3.056548e-01 -1.762740e-02 2.733644e-01 1.124256e-01 5.763718e-01 4.918709e-01 4.778988e-01 6.700992e-01 2.284532e-01 2.640888e-01 3.103706e-01 3.407023e-01 3.557584e-01 3.370688e-01 -8.587028e-03
<VARIANCE> 39
 2.300319e+01 2.753722e+01 2.070830e+01 2.650765e+01 1.700971e+01 2.551723e+01 2.407475e+01 3.323470e+01 2.575160e+01 2.473131e+01 2.548044e+01 4.399148e+01 7.154823e-03 5.970966e-01 5.552087e-01 1.581205e+00 1.276052e+00 1.512681e+00 1.792841e+00 2.718863e+00 2.024640e+00 2.455422e+00 1.720018e+00 2.089835e+00 2.289775e+00 1.635327e-04 1.148108e-01 1.088719e-01 1.862714e-01 2.027817e-01 2.263651e-01 2.742586e-01 3.571334e-01 4.078172e-01 3.786166e-01 3.138359e-01 3.282787e-01 3.594142e-01 4.248518e-05
<GCONST> 7.562387e+01
<STATE> 7
<NUMMIXES> 5
<MIXTURE> 1 1.019215e-01
<MEAN> 39
 -5.584803e-01 9.416087e+00 -4.525972e+00 -4.706609e+00 -4.940223e+00 -8.457145e+00 -3.229277e-01 3.275138e-01 4.849769e+00 8.685095e+00 7.683048e+00 1.019661e+01 8.535720e-01 1.203561e+00 -6.098942e-01 1.442687e+00 2.775170e-01 1.129395e+00 6.191248e-01 -1.386155e-01 -3.379073e-03 -1.515557e+00 -1.865150e+00 -2.369374e+00 -2.722882e+00 -5.145749e-02 3.737844e-02 4.868953e-03 3.181602e-01 6.373848e-01 3.446235e-01 7.453724e-01 1.522779e-01 -1.114432e-01 -2.219999e-01 -4.422755e-01 -1.811021e-01 -4.170129e-01 -2.104747e-02
<VARIANCE> 39
 2.355218e+01 2.520749e+01 2.210847e+01 2.105850e+01 2.441383e+01 2.053040e+01 2.412943e+01 4.373560e+01 5.508674e+01 5.535106e+01 3.811270e+01 6.861761e+01 7.040579e-03 1.353665e+00 1.129148e+00 2.550356e+00 1.959133e+00 2.018354e+00 2.197640e+00 2.643400e+00 2.526724e+00 2.990180e+00 5.306786e+00 4.853292e+00 5.122017e+00 8.035477e-04 3.689109e-01 2.013905e-01 2.926027e-01 3.595798e-01 4.919951e-01 2.771339e-01 4.591802e-01 4.719490e-01 3.795992e-01 6.532095e-01 6.767260e-01 5.671842e-01 2.175191e-04
<GCONST> 9.343536e+01
<MIXTURE> 2 2.323966e-01
<MEAN> 39
 2.450759e+00 9.727712e+00 -6.216888e-01 -1.830169e+00 -8.062451e-01 -3.874020e+00 -3.731946e+00 -3.929897e-02 -8.272318e-01 -1.673228e+00 -4.353338e-01 -1.815088e+00 7.874761e-01 8.695175e-01 -3.759392e-01 9.506875e-01 8.656915e-01 1.088991e+00 1.046329e+00 7.751340e-01 -2.777034e-02 2.999341e-03 1.448593e-01 -3.775434e-02 -1.451495e-02 -3.187286e-02 -2.074587e-01 -3.458394e-02 1.592982e-01 4.001189e-01 -1.517147e-02 1.101461e-01 -1.417309e-02 -1.452734e-01 -1.843593e-02 -1.443206e-02 6.166236e-02 1.298491e-01 -6.835034e-03
<VARIANCE> 39
 1.651135e+01 4.105298e+01 2.523234e+01 3.210412e+01 2.574307e+01 2.221571e+01 3.473838e+01 2.474566e+01 2.474135e+01 2.519089e+01 3.157576e+01 2.391259e+01 7.460843e-03 9.229223e-01 7.782196e-01 1.945521e+00 1.461694e+00 1.770407e+00 2.058804e+00 3.192216e+00 2.045136e+00 2.278790e+00 2.197477e+00 2.871285e+00 2.234855e+00 3.798435e-04 1.073976e-01 1.361580e-01 2.473014e-01 2.148193e-01 3.184991e-01 3.205862e-01 3.343123e-01 3.328396e-01 2.958570e-01 3.704257e-01 3.750610e-01 3.104496e-01 6.977755e-05
<GCONST> 8.007082e+01
<MIXTURE> 3 2.309847e-01
<MEAN> 39
 1.672848e+00 1.045340e+01 8.603693e-01 -3.297150e+00 -1.327907e+00 -3.730791e+00 -4.647568e+00 2.106476e-01 -2.226242e-01 -2.350377e+00 4.765867e-01 -2.203885e+00 7.915974e-01 9.486598e-01 -4.032071e-01 9.923561e-01 9.343543e-01 1.174175e+00 1.260915e+00 9.113838e-01 1.025143e-01 1.568964e-02 1.946144e-01 -1.484295e-01 1.300406e-01 -3.623622e-02 -2.005498e-01 -1.731456e-02 2.730571e-02 4.895059e-01 1.236754e-02 1.450635e-01 2.017900e-02 -1.357155e-01 -7.014830e-02 -5.839451e-03 5.416001e-02 1.074450e-01 -8.629868e-03
<VARIANCE> 39
 1.563947e+01 3.821699e+01 2.916534e+01 3.703355e+01 2.397159e+01 2.122401e+01 3.568644e+01 2.656286e+01 2.706415e+01 2.646382e+01 2.999428e+01 2.352089e+01 6.619930e-03 9.406304e-01 8.225880e-01 1.980321e+00 1.460104e+00 1.745201e+00 1.997637e+00 3.024446e+00 2.107499e+00 2.356708e+00 2.020682e+00 2.702860e+00 2.346858e+00 4.156377e-04 1.106801e-01 1.596384e-01 2.708280e-01 2.529473e-01 3.279423e-01 2.913714e-01 3.372564e-01 3.334946e-01 3.131759e-01 3.623786e-01 3.642219e-01 3.225942e-01 9.743153e-05
<GCONST> 8.098161e+01
<MIXTURE> 4 2.155255e-01
<MEAN> 39
 -3.220402e+00 9.675664e+00 5.853511e-01 -1.204746e+01 -1.552692e-01 -8.339046e+00 -3.150773e+00 2.677295e+00 4.869944e-01 4.570788e-01 2.190315e-01 -1.226204e+00 8.709178e-01 7.084432e-01 -2.794240e+00 1.662267e+00 -1.359555e+00 -2.300911e-02 2.340993e+00 4.327757e-01 1.119466e+00 1.775216e-01 6.795341e-02 -3.758260e-01 -1.264324e-01 -1.308786e-02 2.936678e-01 -3.134719e-01 -1.313768e-01 1.223425e+00 -6.528106e-01 7.245877e-01 8.115086e-02 -4.217805e-01 -1.126627e-01 -3.537360e-01 -1.058894e-01 1.274948e-01 -5.918072e-03
<VARIANCE> 39
 1.445486e+01 3.524914e+01 2.607975e+01 1.739704e+01 2.276770e+01 2.846961e+01 4.571872e+01 3.076234e+01 3.130642e+01 2.909576e+01 3.424495e+01 3.882083e+01 6.458142e-03 7.888988e-01 1.324026e+00 2.292821e+00 1.725403e+00 3.523608e+00 2.566747e+00 4.556587e+00 2.879650e+00 3.148150e+00 3.241679e+00 4.014402e+00 2.902830e+00 3.556962e-04 1.781891e-01 2.949806e-01 2.553758e-01 4.085376e-01 4.693643e-01 4.443715e-01 5.714129e-01 5.963486e-01 5.774658e-01 4.749450e-01 4.788266e-01 4.672677e-01 7.498468e-05
<GCONST> 8.960868e+01
<MIXTURE> 5 2.191713e-01
<MEAN> 39
 2.523837e+00 1.151512e+01 -3.614337e-01 -2.733896e+00 -3.435312e+00 -8.950206e+00 -4.656174e+00 -4.105334e+00 -2.442935e+00 -2.091114e+00 -1.336154e+00 -3.879080e-01 8.055350e-01 2.544267e-01 -6.892552e-01 2.067248e+00 1.190991e+00 1.112607e+00 1.037146e+00 1.255424e-01 2.186317e-01 6.499937e-02 4.014865e-01 3.667398e-01 -3.796552e-01 -4.457379e-02 -4.316461e-01 -3.022379e-01 1.637584e-01 7.866115e-01 3.666944e-01 9.189014e-01 3.196639e-01 4.783489e-01 1.290474e-01 2.134178e-01 9.597044e-02 1.980554e-01 -2.291228e-02
<VARIANCE> 39
 2.168147e+01 2.466117e+01 1.785879e+01 3.878152e+01 1.637275e+01 2.094580e+01 3.078448e+01 3.516982e+01 2.279864e+01 2.019316e+01 2.798327e+01 4.160001e+01 9.682144e-03 1.009125e+00 9.678159e-01 1.139718e+00 1.493681e+00 1.553982e+00 2.011939e+00 2.484354e+00 2.984010e+00 2.312745e+00 2.692564e+00 2.832971e+00 2.876017e+00 2.428464e-04 1.773518e-01 1.871924e-01 2.320051e-01 5.327305e-01 2.326543e-01 2.873085e-01 4.926813e-01 4.700403e-01 4.551680e-01 3.147567e-01 3.502320e-01 4.352429e-01 5.376426e-05
<GCONST> 8.181438e+01
<STATE> 8
<NUMMIXES> 5
<MIXTURE> 1 9.130111e-02
<MEAN> 39
 3.014247e+00 1.054181e+01 1.233361e+00 -3.715305e+00 -1.431890e+00 -7.837540e+00 -1.638384e+00 2.780273e-01 -4.047566e+00 2.005916e+00 -8.798860e-01 -5.973644e-01 7.831495e-01 -5.152957e-01 -1.305188e+00 2.532935e+00 2.805324e+00 2.169501e+00 2.892705e+00 5.023014e-01 1.273169e+00 -4.663875e-01 5.388770e-02 1.113726e-01 -9.625410e-01 -9.140954e-02 -9.251687e-01 -4.473975e-01 -2.678650e-01 7.589051e-01 2.438905e-01 8.935279e-01 3.384417e-01 2.513182e-01 5.270025e-01 1.055589e-01 3.200471e-01 5.307606e-01 -3.086029e-02
<VARIANCE> 39
 8.512436e+00 2.256464e+01 1.388382e+01 2.073994e+01 2.307337e+01 1.928485e+01 1.825441e+01 3.174968e+01 1.603684e+01 2.112757e+01 2.844460e+01 4.645567e+01 7.423566e-03 1.896672e+00 1.705482e+00 1.219441e+00 1.714281e+00 2.008465e+00 1.525383e+00 3.135019e+00 3.613374e+00 2.996269e+00 4.558758e+00 3.274497e+00 4.023864e+00 9.141957e-04 8.937736e-02 1.567671e-01 2.420990e-01 3.127089e-01 3.708512e-01 2.724489e-01 4.599639e-01 6.085129e-01 3.133618e-01 4.756228e-01 4.676264e-01 4.265887e-01 7.489051e-05
<GCONST> 8.339120e+01
<MIXTURE> 2 1.812935e-01
<MEAN> 39
 4.811520e+00 1.011361e+01 -8.141494e-02 6.626443e-01 -7.797244e-02 -3.007822e+00 -2.449830e+00 -2.469498e-02 4.029790e-01 1.334102e+00 1.621303e+00 4.042637e-01 6.990931e-01 7.397488e-02 -5.435799e-01 1.137223e+00 1.096072e+00 7.249700e-01 7.974874e-01 3.331892e-01 -5.178158e-01 -1.235937e-01 -4.793753e-01 -2.369074e-01 -1.194158e-01 -4.813022e-02 -5.451794e-01 -2.581294e-01 -3.785282e-03 3.523888e-02 -4.790508e-02 2.814727e-02 3.209312e-03 2.059798e-02 2.789883e-02 -5.524705e-02 -3.256778e-02 -6.274456e-02 -7.948325e-03
<VARIANCE> 39
 1.468982e+01 4.665907e+01 1.986180e+01 2.886420e+01 3.116378e+01 2.388737e+01 4.899357e+01 3.275186e+01 3.609610e+01 4.496502e+01 4.427662e+01 4.204695e+01 1.719452e-02 1.116211e+00 1.145240e+00 1.618220e+00 1.867836e+00 2.178420e+00 2.086640e+00 2.710672e+00 2.690329e+00 2.862625e+00 3.430190e+00 3.771306e+00 3.246721e+00 1.451343e-03 1.712721e-01 2.437737e-01 4.604484e-01 2.542227e-01 4.195325e-01 3.577982e-01 5.381421e-01 5.181547e-01 5.103937e-01 7.918611e-01 7.443798e-01 5.741658e-01 1.808097e-04
<GCONST> 9.364819e+01
<MIXTURE> 3 1.928440e-01
<MEAN> 39
 3.218485e+00 9.285315e+00 1.773693e+00 -1.340976e+00 1.690490e+00 -1.617918e+00 -3.487405e+00 -1.348295e+00 -1.664411e+00 -1.879610e+00 -9.782218e-01 -2.440744e+00 7.405567e-01 5.960137e-01 -4.260248e-01 1.338485e+00 1.345881e+00 7.390777e-01 1.124837e+00 1.864950e-01 -3.375570e-01 -1.260562e-01 -3.061846e-01 -8.157852e-02 8.700620e-02 -3.589477e-02 -5.146679e-01 -6.980147e-02 -2.430034e-01 6.412791e-02 -3.212266e-01 -2.648807e-01 4.879395e-02 1.424586e-01 2.070719e-01 1.906198e-01 1.853481e-01 2.324525e-01 -6.701592e-04
<VARIANCE> 39
 1.645267e+01 4.008744e+01 2.948296e+01 2.958611e+01 2.774138e+01 2.529244e+01 3.573050e+01 2.710110e+01 2.541933e+01 3.311765e+01 3.054255e+01 3.411936e+01 1.201080e-02 1.011202e+00 1.152530e+00 1.774486e+00 1.770463e+00 2.264931e+00 2.000724e+00 3.100900e+00 2.293718e+00 2.050432e+00 2.557716e+00 3.192887e+00 3.216950e+00 5.887436e-04 1.820974e-01 2.159142e-01 5.352920e-01 2.746698e-01 4.605745e-01 4.444759e-01 5.515763e-01 4.922717e-01 4.029612e-01 5.735959e-01 4.886668e-01 5.308754e-01 1.970338e-04
<GCONST> 8.956203e+01
<MIXTURE> 4 1.704109e-01
<MEAN> 39
 -2.439774e+00 3.147756e+00 3.069296e+00 -1.321212e+01 -3.007108e+00 -1.124820e+00 -2.239251e+00 3.270267e+00 2.574497e+00 -7.295104e-01 -8.459848e-01 4.529025e-02 8.497834e-01 1.070096e+00 -3.046550e+00 8.530416e-01 1.448083e+00 -1.351887e+00 2.721848e+00 1.396853e+00 -3.823091e-01 -2.318493e-01 -4.704523e-01 -9.330962e-01 -8.740814e-04 -2.040925e-02 1.820828e-01 2.565274e-01 -7.224675e-01 1.465215e+00 -1.105834e-03 -4.823044e-01 1.654853e-01 -5.505651e-01 -2.950484e-01 -9.069148e-02 1.034924e-01 7.482728e-02 -2.584771e-03
<VARIANCE> 39
 1.357642e+01 3.657151e+01 4.029790e+01 1.987452e+01 2.550643e+01 3.721486e+01 5.382931e+01 3.320113e+01 3.728239e+01 3.586509e+01 3.421895e+01 4.171693e+01 8.433074e-03 1.216533e+00 2.737408e+00 1.843668e+00 3.125488e+00 4.725577e+00 3.710812e+00 3.660865e+00 4.124032e+00 3.743583e+00 4.362225e+00 5.699413e+00 3.183018e+00 7.339393e-04 1.993525e-01 2.580555e-01 5.722219e-01 4.225957e-01 4.332477e-01 7.023996e-01 6.873810e-01 6.476244e-01 9.622641e-01 6.362901e-01 4.476215e-01 6.920444e-01 1.083479e-04
<GCONST> 9.842973e+01
<MIXTURE> 5 3.641503e-01
<MEAN> 39
 2.725401e+00 1.041461e+01 5.486421e+00 8.479126e-01 -9.908551e-01 -2.391253e+00 -4.532649e+00 -1.687078e+00 -1.148699e+00 -2.691016e+00 -7.462358e-01 -2.104583e+00 6.994227e-01 -8.496141e-01 -1.209125e+00 1.067126e+00 2.502423e+00 1.530140e+00 2.184337e+00 9.480130e-01 5.682057e-01 1.519939e-01 3.574944e-01 2.634170e-01 4.643547e-01 -8.705191e-02 -8.290008e-01 -5.235096e-01 -6.982506e-01 1.473073e-02 1.019371e-01 1.868459e-01 3.053663e-01 4.256004e-01 3.035324e-01 3.304333e-01 3.491272e-01 3.159446e-01 -2.576781e-02
<VARIANCE> 39
 1.744662e+01 3.298546e+01 1.614436e+01 3.362054e+01 1.845993e+01 2.293305e+01 2.459567e+01 3.777507e+01 3.736280e+01 2.053562e+01 2.796023e+01 3.121123e+01 8.258591e-03 1.307289e+00 1.776395e+00 1.739571e+00 2.370663e+00 1.625493e+00 2.606828e+00 2.241524e+00 2.100582e+00 2.424453e+00 2.653353e+00 2.284734e+00 2.105693e+00 7.906688e-04 1.893057e-01 2.347633e-01 2.626104e-01 3.631358e-01 3.228149e-01 4.483892e-01 5.923637e-01 6.543416e-01 5.770642e-01 4.875712e-01 4.645307e-01 5.110101e-01 6.497482e-05
<GCONST> 8.667989e+01
<STATE> 9
<NUMMIXES> 5
<MIXTURE> 1 7.674999e-02
<MEAN> 39
 -1.662448e+00 1.290951e+00 -2.956742e+00 -9.857215e+00 7.270077e+00 9.628535e+00 9.377505e+00 6.892009e+00 2.533391e+00 -3.805581e+00 2.307529e+00 6.044297e-01 6.524668e-01 -2.727998e-01 -3.093004e+00 1.167538e+00 2.192342e+00 1.006693e+00 3.253071e+00 -7.917760e-01 -2.335730e+00 -3.001387e-01 -4.143188e-01 3.526359e-01 1.408855e+00 -4.329089e-02 -2.155190e-01 1.139065e-01 -8.650837e-02 7.246408e-01 -8.590195e-01 -1.244385e+00 -8.396522e-01 -8.857492e-01 4.171113e-02 8.793302e-01 -3.183087e-01 -6.402940e-02 1.019479e-02
<VARIANCE> 39
 6.606527e+00 4.184637e+01 3.739676e+01 6.562733e+01 3.810506e+01 5.734767e+01 7.506366e+01 4.148086e+01 4.601817e+01 6.637439e+01 5.950822e+01 3.985616e+01 1.234368e-02 4.917539e-01 2.108710e+00 2.799401e+00 2.793912e+00 4.404624e+00 6.163622e+00 9.245863e+00 5.390793e+00 1.004368e+01 1.073621e+01 8.062006e+00 9.492567e+00 3.419748e-03 1.049017e-01 3.058477e-01 5.976343e-01 7.044450e-01 5.858499e-01 8.721693e-01 1.368871e+00 9.712601e-01 2.113282e+00 1.944698e+00 1.820722e+00 1.307792e+00 2.949151e-04
<GCONST> 1.143434e+02
<MIXTURE> 2 1.665627e-01
<MEAN> 39
 1.886835e+00 6.762383e+00 2.586090e+00 -2.099907e+00 -7.425061e-01 -6.767098e-01 -2.726999e+00 1.308416e-01 5.302178e-01 -9.724953e-01 7.773616e-01 3.961957e-01 7.167997e-01 -3.057327e-01 -2.165611e-01 4.840605e-01 5.377750e-01 2.580825e-01 4.239466e-01 4.366141e-01 2.454217e-01 4.296558e-01 2.139820e-01 2.001576e-01 2.540348e-01 -2.103992e-02 -4.463604e-01 4.786499e-02 -6.206699e-01 -2.239711e-01 -7.786451e-02 -4.190257e-01 2.230202e-01 7.277014e-02 1.140171e-01 2.368158e-01 -5.752731e-02 -4.206857e-02 7.604037e-03
<VARIANCE> 39
 1.449789e+01 3.966311e+01 3.577039e+01 3.629760e+01 3.180775e+01 2.979418e+01 5.489951e+01 3.391936e+01 4.091843e+01 5.245753e+01 5.256493e+01 4.323514e+01 1.696368e-02 7.347480e-01 1.010159e+00 1.172349e+00 1.780769e+00 1.560084e+00 1.172378e+00 1.919747e+00 1.733926e+00 1.550886e+00 2.182678e+00 2.753402e+00 2.757420e+00 1.670800e-03 1.883689e-01 1.770127e-01 6.432545e-01 3.395763e-01 6.989284e-01 4.981304e-01 8.598918e-01 5.521395e-01 5.546336e-01 9.161977e-01 1.100418e+00 1.216038e+00 2.638015e-04
<GCONST> 9.465582e+01
<MIXTURE> 3 1.822816e-01
<MEAN> 39
 2.377853e+00 1.125812e+01 5.439406e+00 1.706825e+00 2.111262e+00 3.282747e-01 -2.983877e+00 -2.110591e+00 -4.748226e-01 -3.234942e+00 -4.326594e-02 -1.260494e+00 5.955575e-01 -6.721730e-01 -8.775864e-01 1.211169e-01 1.275368e+00 5.752384e-01 3.909107e-01 3.516342e-01 -8.388850e-02 1.406212e-01 6.793370e-02 6.762408e-02 1.172220e-01 -5.324498e-02 -5.009293e-01 -3.182842e-01 -5.151802e-01 -6.697698e-01 -3.713939e-01 -4.405581e-01 -2.094438e-02 4.439285e-01 4.774798e-01 3.793616e-01 2.263604e-01 3.275083e-02 7.304300e-03
<VARIANCE> 39
 1.318494e+01 4.190854e+01 2.763923e+01 3.425663e+01 3.237936e+01 2.681894e+01 2.582676e+01 2.637450e+01 2.568970e+01 2.649248e+01 2.629725e+01 2.354401e+01 2.254539e-02 9.186366e-01 1.870828e+00 3.160899e+00 2.411690e+00 2.314928e+00 3.205919e+00 2.199918e+00 3.033385e+00 2.203605e+00 2.198344e+00 1.565305e+00 1.629668e+00 3.138679e-03 2.323654e-01 5.034655e-01 4.793403e-01 5.149845e-01 5.155994e-01 6.956070e-01 5.051624e-01 4.685381e-01 4.435736e-01 4.340422e-01 3.521043e-01 3.731626e-01 5.148886e-04
<GCONST> 9.326021e+01
<MIXTURE> 4 1.141613e-01
<MEAN> 39
 -6.601895e-01 -4.525917e+00 2.986938e+00 -8.015279e+00 -9.116130e+00 2.146885e+00 2.974340e+00 -1.252814e+00 -2.879422e-01 1.188542e+00 -5.385215e+00 -4.729458e-01 8.790573e-01 1.555466e+00 -2.746525e+00 -1.140706e+00 3.521726e+00 -1.092885e+00 -3.632240e-01 2.319951e+00 -4.257199e-01 -1.601297e+00 2.102167e-01 -3.158490e-01 -3.918461e-01 -1.362918e-03 1.306942e-01 7.601882e-01 -8.236056e-01 4.286510e-01 1.094388e+00 -1.157749e+00 -4.752602e-01 2.880898e-01 -1.031755e-01 -1.536089e-01 6.021943e-01 3.731777e-02 2.255083e-03
<VARIANCE> 39
 8.890616e+00 2.523467e+01 2.959992e+01 2.020171e+01 1.947628e+01 5.518605e+01 3.867288e+01 3.064804e+01 3.253300e+01 2.734705e+01 4.725050e+01 4.019405e+01 8.942418e-03 1.440565e+00 8.584760e-01 1.339520e+00 2.519509e+00 1.906329e+00 3.381554e+00 2.779497e+00 4.007063e+00 5.685454e+00 2.367709e+00 2.463560e+00 2.128085e+00 2.924119e-04 8.480642e-02 1.503686e-01 5.391104e-01 3.630808e-01 5.867913e-01 5.380335e-01 3.449783e-01 5.513565e-01 5.944692e-01 4.382956e-01 7.905612e-01 4.076374e-01 4.266094e-05
<GCONST> 8.764150e+01
<MIXTURE> 5 4.602439e-01
<MEAN> 39
 -6.744924e-01 8.188700e+00 5.668412e+00 5.399504e+00 2.682907e+00 6.345273e-01 -2.458668e+00 -1.026105e+00 -2.009298e+00 -1.663062e+00 8.097416e-01 -3.435014e-01 5.285922e-01 -2.492566e+00 -2.667525e+00 -2.615762e-01 1.458343e+00 1.399581e+00 2.258552e+00 1.485589e+00 1.714388e+00 1.146106e+00 1.235057e+00 1.031697e+00 9.944386e-01 -1.323992e-01 -3.966044e-01 -3.671853e-01 -6.574138e-01 -5.890880e-01 -2.788467e-01 -1.645483e-01 2.619558e-01 3.910832e-01 5.036877e-01 3.757497e-01 1.427201e-01 1.089829e-01 -3.813316e-03
<VARIANCE> 39
 2.355109e+01 3.948080e+01 1.646748e+01 2.461069e+01 2.147228e+01 3.272600e+01 2.532456e+01 3.206826e+01 4.004379e+01 3.243689e+01 3.549968e+01 2.934344e+01 1.721080e-02 8.930179e-01 1.620260e+00 2.485953e+00 2.536895e+00 2.493935e+00 3.143387e+00 2.701905e+00 3.386374e+00 3.003513e+00 3.620744e+00 2.966098e+00 3.428960e+00 9.554749e-04 2.604211e-01 3.289031e-01 2.705752e-01 4.490705e-01 4.736479e-01 5.670766e-01 5.389500e-01 5.952846e-01 4.933451e-01 6.083677e-01 5.137400e-01 5.179221e-01 3.924336e-04
<GCONST> 9.467629e+01
<TRANSP> 10
 0.000000e+00 1.000000e+00 0.000000e+00 0.000000e+00 0.000000e+00 0.000000e+00 0.000000e+00 0.000000e+00 0.000000e+00 0.000000e+00
 0.000000e+00 7.743858e-01 2.256142e-01 0.000000e+00 0.000000e+00 0.000000e+00 0.000000e+00 0.000000e+00 0.000000e+00 0.000000e+00
 0.000000e+00 0.000000e+00 8.218219e-01 1.781781e-01 0.000000e+00 0.000000e+00 0.000000e+00 0.000000e+00 0.000000e+00 0.000000e+00
 0.000000e+00 0.000000e+00 0.000000e+00 8.233745e-01 1.766255e-01 0.000000e+00 0.000000e+00 0.000000e+00 0.000000e+00 0.000000e+00
 0.000000e+00 0.000000e+00 0.000000e+00 0.000000e+00 5.768129e-01 4.231872e-01 0.000000e+00 0.000000e+00 0.000000e+00 0.000000e+00
 0.000000e+00 0.000000e+00 0.000000e+00 0.000000e+00 0.000000e+00 4.260329e-01 5.739672e-01 0.000000e+00 0.000000e+00 0.000000e+00
 0.000000e+00 0.000000e+00 0.000000e+00 0.000000e+00 0.000000e+00 0.000000e+00 3.673220e-01 6.326780e-01 0.000000e+00 0.000000e+00
 0.000000e+00 0.000000e+00 0.000000e+00 0.000000e+00 0.000000e+00 0.000000e+00 0.000000e+00 3.776371e-01 6.223629e-01 0.000000e+00
 0.000000e+00 0.000000e+00 0.000000e+00 0.000000e+00 0.000000e+00 0.000000e+00 0.000000e+00 0.000000e+00 3.397071e-01 6.602929e-01
 0.000000e+00 0.000000e+00 0.000000e+00 0.000000e+00 0.000000e+00 0.000000e+00 0.000000e+00 0.000000e+00 0.000000e+00 0.000000e+00
<ENDHMM>
~h "#u"
<BEGINHMM>
<NUMSTATES> 10
<STATE> 2
<NUMMIXES> 5
<MIXTURE> 1 1.643354e-01
<MEAN> 39
 6.438877e+00 -5.780922e+00 -5.919224e+00 3.759783e+00 -2.393512e+00 -1.126774e+01 -2.429135e+00 6.312999e+00 8.113705e-01 -3.225909e+00 -4.117723e+00 -7.287081e-01 8.769508e-01 1.702335e+00 6.809539e-01 -1.934736e+00 5.099723e-02 2.881988e+00 4.652897e-01 -2.795240e+00 -3.857293e-01 2.108698e+00 1.166207e+00 -7.014882e-01 -8.090669e-01 -9.214064e-03 -1.872072e-01 3.957834e-01 3.871751e-01 -9.524313e-01 -7.348246e-02 1.250391e+00 1.599455e-01 -1.209813e+00 -1.939854e-01 7.715472e-01 3.160419e-01 -2.850743e-01 4.916477e-05
<VARIANCE> 39
 1.435050e+01 2.510091e+01 2.207338e+01 1.738796e+01 2.815016e+01 3.141316e+01 4.421470e+01 4.341793e+01 3.409161e+01 4.189316e+01 4.327245e+01 4.402988e+01 6.307891e-03 4.418927e-01 8.442829e-01 1.591297e+00 1.894604e+00 2.593922e+00 3.350238e+00 2.723734e+00 3.965161e+00 2.405565e+00 2.896998e+00 2.196467e+00 2.960010e+00 1.440443e-04 8.478007e-02 1.730524e-01 2.169829e-01 4.704887e-01 4.587177e-01 4.008879e-01 7.577747e-01 5.221058e-01 6.483890e-01 4.574032e-01 5.094334e-01 5.097043e-01 1.865214e-05
<GCONST> 8.465903e+01
<MIXTURE> 2 1.986131e-01
<MEAN> 39
 1.117382e+01 2.173470e+00 -7.612982e+00 -4.309738e+00 2.103951e+00 -3.156534e-01 -1.422623e+00 -1.077572e+00 -6.925182e-01 3.912124e+00 2.309295e+00 2.194065e-01 7.420097e-01 5.970704e-01 2.275766e-01 -8.344464e-01 -7.219546e-02 -6.566704e-02 4.515678e-03 -1.409176e-01 -3.471341e-01 -6.314331e-01 -1.958136e-02 6.572863e-02 -1.058102e-01 4.118323e-02 -4.178597e-01 -1.665096e-01 3.015785e-01 2.515817e-01 -4.652335e-02 -2.712679e-02 9.251325e-02 5.764337e-02 8.692654e-02 -2.149895e-01 -1.439110e-01 1.537820e-02 -1.170235e-02
<VARIANCE> 39
 2.299248e+01 2.909016e+01 2.615981e+01 2.459552e+01 2.703111e+01 2.845445e+01 3.619295e+01 2.639222e+01 3.190689e+01 2.876046e+01 3.265805e+01 3.256190e+01 1.532621e-02 9.933029e-01 1.162056e+00 1.832407e+00 1.710774e+00 1.815728e+00 2.158591e+00 2.260439e+00 2.465776e+00 2.184096e+00 2.821386e+00 3.265447e+00 3.400629e+00 1.046109e-03 2.709908e-01 1.757279e-01 3.737789e-01 3.588000e-01 3.068584e-01 3.737153e-01 4.425782e-01 4.215006e-01 4.631132e-01 4.421498e-01 5.138630e-01 5.460374e-01 3.934236e-04
<GCONST> 8.990718e+01
<MIXTURE> 3 2.018356e-01
<MEAN> 39
 1.163564e+01 1.703024e+00 -8.768186e+00 -4.935349e+00 7.156802e-01 -8.058103e-01 -1.796999e+00 -1.273281e+00 -1.780814e+00 2.533629e+00 5.545500e-01 -1.076895e+00 8.118094e-01 1.753848e-01 -3.325333e-01 -5.777692e-01 3.764341e-01 -9.337310e-02 -3.826171e-01 -2.037751e-01 -3.189538e-01 -4.513212e-01 -3.345330e-01 -4.361152e-01 -6.427721e-01 3.959944e-02 -5.287246e-01 -7.193430e-02 6.059446e-01 3.527919e-01 1.487048e-01 2.075954e-01 1.834022e-01 1.333059e-01 2.936777e-01 1.543224e-03 9.603076e-02 1.407510e-01 -2.197204e-02
<VARIANCE> 39
 2.743610e+01 3.587627e+01 2.787872e+01 2.400900e+01 2.766883e+01 2.733096e+01 2.644207e+01 2.643515e+01 2.912639e+01 2.776614e+01 3.469205e+01 3.218650e+01 1.025095e-02 7.637747e-01 1.211068e+00 1.756565e+00 1.566129e+00 1.382730e+00 1.803145e+00 2.211245e+00 2.212954e+00 2.273713e+00 2.919794e+00 3.291796e+00 3.784455e+00 5.584251e-04 2.863075e-01 1.966358e-01 3.941921e-01 3.507948e-01 2.904076e-01 3.553166e-01 3.825597e-01 4.739516e-01 4.056621e-01 4.338086e-01 5.057908e-01 4.666782e-01 2.998014e-04
<GCONST> 8.761906e+01
<MIXTURE> 4 1.335034e-01
<MEAN> 39
 2.421505e+00 -5.614294e+00 5.094794e-01 -7.456848e-01 -1.095696e+01 -6.485870e+00 4.349151e+00 6.306730e-01 -4.046713e+00 -4.389265e-01 -1.725068e+00 -2.395697e+00 8.969070e-01 1.878962e+00 -9.147115e-01 -2.145760e+00 3.005393e+00 1.218792e+00 -2.775239e+00 -3.261345e-01 2.314934e+00 -1.462600e-01 -6.483724e-01 1.975061e-01 -1.499340e-01 -8.230967e-03 9.886637e-02 6.126910e-01 -4.379183e-01 -5.199902e-01 1.266392e+00 8.204067e-02 -1.244350e+00 -3.070043e-02 8.084815e-01 -4.062704e-02 -2.157097e-01 1.629925e-01 -7.433566e-04
<VARIANCE> 39
 1.440022e+01 2.499345e+01 2.890373e+01 2.666471e+01 2.782428e+01 4.547584e+01 5.098763e+01 5.409893e+01 2.967642e+01 4.618572e+01 4.353095e+01 4.940712e+01 6.007528e-03 7.032393e-01 1.291141e+00 1.429245e+00 2.663543e+00 3.347690e+00 2.079338e+00 4.932513e+00 3.046802e+00 3.472507e+00 2.591429e+00 2.631008e+00 3.914522e+00 1.477762e-04 8.004981e-02 2.551384e-01 3.099526e-01 5.237662e-01 5.239174e-01 9.817936e-01 5.474589e-01 9.992982e-01 5.452071e-01 6.493967e-01 4.359198e-01 5.221096e-01 1.631067e-05
<GCONST> 9.013834e+01
<MIXTURE> 5 3.017085e-01
<MEAN> 39
 9.045548e+00 -3.989028e+00 -1.055976e+01 7.577204e-01 4.088727e+00 -4.096531e+00 -5.580144e+00 1.275515e-01 3.041637e+00 3.364437e+00 -4.140422e+00 -4.751241e+00 8.674304e-01 1.091462e+00 1.126086e+00 -3.139324e-01 -1.191133e+00 5.092506e-01 1.759732e+00 -5.497180e-02 -1.720658e+00 -3.178889e-01 1.850549e+00 1.420039e+00 -2.967981e-01 -9.866102e-03 -2.022508e-01 -4.295254e-02 4.092507e-01 -3.423345e-02 -5.777496e-01 -8.792872e-03 6.931912e-01 1.312635e-01 -7.307730e-01 -4.431885e-01 4.121951e-01 5.058030e-01 -1.405433e-04
<VARIANCE> 39
 1.367754e+01 2.584949e+01 2.705108e+01 2.125957e+01 2.359305e+01 3.633039e+01 2.918388e+01 3.423383e+01 3.137576e+01 3.641036e+01 3.474725e+01 2.867076e+01 5.827227e-03 3.416743e-01 6.018123e-01 1.123734e+00 1.369670e+00 2.192415e+00 2.353076e+00 2.429088e+00 2.625716e+00 2.588850e+00 2.229348e+00 2.592088e+00 2.756379e+00 1.461939e-04 5.105410e-02 9.350124e-02 1.853180e-01 2.398618e-01 3.275943e-01 4.057367e-01 4.421976e-01 4.323511e-01 3.585174e-01 4.926127e-01 4.143408e-01 3.243736e-01 1.318882e-05
<GCONST> 7.648425e+01
<STATE> 3
<NUMMIXES> 5
<MIXTURE> 1 1.653368e-01
<MEAN> 39
 9.638161e+00 -3.284648e+00 -9.801948e+00 -3.695646e+00 -1.126721e+00 -2.998581e+00 -4.833113e+00 -6.121129e+00 -3.198938e+00 -1.886454e+00 -3.134655e+00 -7.391286e+00 8.799905e-01 2.496200e-01 1.584035e-01 1.796316e-01 1.719119e-01 1.829984e-01 2.471077e-01 5.966067e-02 9.091885e-02 1.933390e-01 1.886630e-01 2.523673e-02 -1.456286e-01 -4.105324e-03 9.525230e-02 1.768196e-01 3.147217e-01 3.188505e-01 2.908702e-01 3.072693e-01 4.268088e-01 5.736391e-01 4.329485e-01 2.543290e-01 3.025113e-01 4.675238e-01 -1.728666e-03
<VARIANCE> 39
 2.131595e+01 2.221732e+01 2.888030e+01 2.250345e+01 2.611531e+01 3.151967e+01 2.044622e+01 2.590690e+01 3.001142e+01 3.068873e+01 3.646414e+01 4.262294e+01 5.332730e-03 3.368604e-01 6.449648e-01 8.839731e-01 1.147111e+00 1.225573e+00 1.428372e+00 1.902642e+00 2.213758e+00 1.969149e+00 2.042251e+00 2.205972e+00 2.865286e+00 1.011513e-04 3.204360e-02 1.009372e-01 1.278958e-01 2.067454e-01 2.079617e-01 2.142048e-01 2.275645e-01 2.897420e-01 3.137695e-01 2.750245e-01 2.816351e-01 3.611278e-01 1.201389e-05
<GCONST> 6.949972e+01
<MIXTURE> 2 1.600915e-01
<MEAN> 39
 4.594376e+00 3.448420e-01 -4.358938e+00 -3.418275e-01 -5.133559e-01 -2.840107e-02 -6.854275e-01 -8.327875e-01 -4.739488e-01 1.832232e-01 6.792069e-01 -1.846089e-01 9.238439e-01 3.721159e-02 1.191938e-01 2.190728e-02 -1.479405e-02 8.001520e-02 1.355931e-01 -3.497116e-04 4.362483e-02 1.000780e-01 6.269576e-02 4.622765e-02 -8.852422e-03 -4.227111e-03 4.871280e-04 7.889606e-05 -1.358385e-02 -3.105336e-02 3.526666e-03 -8.485474e-03 -9.282920e-03 -2.581906e-02 -4.526128e-02 3.262896e-02 -1.492240e-02 -2.988022e-02 -7.200123e-04
<VARIANCE> 39
 1.636825e+01 1.025927e+01 2.210535e+01 9.960146e+00 9.307925e+00 1.007096e+01 1.304956e+01 1.206820e+01 1.366923e+01 1.570915e+01 1.182492e+01 1.611565e+01 3.611155e-03 1.176044e-01 2.714455e-01 3.790348e-01 4.262306e-01 5.438110e-01 6.438956e-01 7.025077e-01 8.040119e-01 8.847964e-01 7.584721e-01 8.273188e-01 8.222000e-01 4.525983e-05 1.720686e-02 4.006789e-02 6.571747e-02 6.794649e-02 8.875774e-02 1.072853e-01 1.267430e-01 1.264384e-01 1.355105e-01 1.266380e-01 1.453859e-01 1.316420e-01 3.730628e-06
<GCONST> 3.711660e+01
<MIXTURE> 3 1.387926e-01
<MEAN> 39
 6.443991e+00 5.425944e-01 -6.545807e+00 -1.246082e+00 3.522915e-01 -3.849381e-02 -5.876651e-01 -1.390660e+00 -1.176453e+00 1.196463e+00 1.199489e+00 2.366393e-01 9.170871e-01 3.849465e-02 1.267721e-01 4.277711e-02 1.358158e-02 2.126142e-02 1.032805e-01 2.210222e-02 5.762102e-02 1.140004e-01 2.426957e-02 5.481457e-02 3.724429e-02 -3.395678e-03 6.153445e-04 -2.413668e-02 9.831422e-03 -1.939465e-02 -8.474489e-03 6.802619e-03 -2.976196e-02 -1.781311e-02 -1.855198e-02 4.911812e-02 -3.450017e-02 -7.944042e-02 -1.047752e-03
<VARIANCE> 39
 2.154142e+01 1.423979e+01 3.080295e+01 1.264767e+01 1.519470e+01 1.190048e+01 2.007935e+01 1.549075e+01 1.654390e+01 2.089907e+01 1.446916e+01 1.921975e+01 3.617360e-03 1.438868e-01 2.840879e-01 3.688921e-01 4.020013e-01 5.246078e-01 6.224374e-01 6.784186e-01 7.781726e-01 8.544807e-01 7.460704e-01 8.371949e-01 8.383746e-01 6.112181e-05 2.137996e-02 4.240977e-02 6.324681e-02 6.815778e-02 8.825435e-02 1.080028e-01 1.289364e-01 1.284731e-01 1.391896e-01 1.276326e-01 1.442812e-01 1.432903e-01 4.311348e-06
<GCONST> 4.131726e+01
<MIXTURE> 4 2.578493e-01
<MEAN> 39
 9.855370e+00 -9.401371e-01 -6.509392e+00 -1.871817e+00 1.007475e-01 -4.296647e-01 -4.533947e-01 -1.360573e+00 -1.115694e+00 -4.712172e-01 -6.154290e-01 -2.691769e+00 8.746901e-01 3.219617e-02 -1.104693e-01 6.670272e-02 1.115845e-01 -1.758443e-01 -3.699861e-02 -1.780925e-01 -1.416569e-01 -9.090774e-03 -2.472807e-01 -2.404331e-01 -5.237520e-01 1.182419e-03 -5.184698e-02 -3.271284e-02 -6.635284e-02 -4.318836e-02 1.744293e-02 -4.743867e-02 -2.263968e-01 -1.521993e-01 4.759842e-02 1.395980e-01 4.829416e-02 -1.529637e-02 -3.569377e-03
<VARIANCE> 39
 2.308336e+01 2.615860e+01 2.865730e+01 2.197800e+01 2.546556e+01 3.022415e+01 2.117861e+01 2.742686e+01 3.586055e+01 3.140659e+01 3.939889e+01 6.071302e+01 7.039772e-03 3.840196e-01 9.189312e-01 1.202505e+00 1.460331e+00 1.313961e+00 1.449377e+00 1.859895e+00 2.136487e+00 2.185794e+00 2.153212e+00 2.278273e+00 2.785832e+00 1.831897e-04 5.078372e-02 1.407854e-01 1.841770e-01 2.481072e-01 2.238344e-01 2.801868e-01 3.061265e-01 3.766646e-01 3.986038e-01 3.481824e-01 4.384188e-01 5.543877e-01 2.663738e-05
<GCONST> 7.684581e+01
<MIXTURE> 5 2.779238e-01
<MEAN> 39
 1.145825e+01 -6.565920e-01 -1.003757e+01 -1.777583e+00 3.922808e+00 5.601584e-01 -2.693447e+00 -2.577432e+00 -4.148123e-01 6.094331e+00 2.382272e+00 -1.907447e+00 8.481644e-01 4.998947e-01 7.064583e-01 3.215148e-01 -4.110362e-01 -2.515373e-01 8.125305e-01 8.649681e-01 -2.002358e-01 -7.552697e-01 1.281911e-02 1.171337e+00 1.076996e+00 -8.837088e-03 -1.387775e-01 -1.371576e-01 6.225377e-02 1.346064e-01 -1.681076e-01 -3.552468e-01 -2.036919e-03 3.517625e-01 8.272275e-02 -4.513865e-01 -3.937714e-01 -2.962654e-02 -4.041826e-04
<VARIANCE> 39
 1.364548e+01 2.307648e+01 2.399067e+01 2.023959e+01 2.383596e+01 2.412284e+01 2.294620e+01 2.596408e+01 3.474218e+01 2.158808e+01 2.486950e+01 3.303022e+01 5.148118e-03 2.224228e-01 5.159348e-01 8.339036e-01 1.158042e+00 1.098767e+00 1.351897e+00 1.375522e+00 1.521548e+00 1.808205e+00 1.800767e+00 1.653558e+00 1.672741e+00 1.326177e-04 3.344395e-02 7.017855e-02 1.067538e-01 1.730850e-01 1.737355e-01 2.463623e-01 2.429737e-01 3.063831e-01 2.712551e-01 2.511392e-01 2.698043e-01 2.801289e-01 1.510736e-05
<GCONST> 6.446127e+01
<STATE> 4
<NUMMIXES> 5
<MIXTURE> 1 1.619319e-01
<MEAN> 39
 1.384552e+01 3.109194e+00 -7.680905e+00 -4.745712e+00 -3.605470e+00 4.852316e-01 6.512586e-01 4.621989e-01 -3.540511e+00 -8.017368e-01 -2.652776e+00 -2.050470e+00 7.749116e-01 2.685715e-01 3.551219e-01 1.332912e-01 2.689513e-01 3.752877e-01 3.610767e-01 9.126415e-02 4.863800e-01 4.495806e-01 4.640380e-01 4.189495e-01 1.830618e-01 -9.500815e-03 -7.501826e-02 -1.083620e-01 -1.087673e-01 1.761221e-01 3.380025e-01 3.679925e-02 -2.048453e-01 -1.777052e-01 2.164744e-01 3.264794e-01 2.529911e-01 5.213270e-02 -5.837003e-04
<VARIANCE> 39
 8.353195e+00 3.746769e+01 2.308562e+01 2.029369e+01 1.799506e+01 2.195963e+01 2.515959e+01 3.398028e+01 2.380141e+01 2.884266e+01 3.423513e+01 5.170944e+01 8.685303e-03 2.670249e-01 7.771310e-01 1.337582e+00 1.202811e+00 1.599508e+00 1.602966e+00 1.749254e+00 2.608502e+00 1.710838e+00 2.273165e+00 2.651719e+00 2.397464e+00 2.003517e-04 3.340850e-02 1.312677e-01 1.596874e-01 2.010781e-01 2.076611e-01 3.171646e-01 3.431183e-01 4.319402e-01 4.055448e-01 4.135828e-01 4.178293e-01 3.986004e-01 1.660165e-05
<GCONST> 7.354107e+01
<MIXTURE> 2 7.962327e-02
<MEAN> 39
 1.356149e+01 2.363525e+00 -8.666161e+00 -2.502556e+00 2.298513e+00 3.504776e+00 -1.317200e+00 -2.915134e+00 -2.555497e+00 4.874744e+00 5.371533e+00 2.300552e+00 7.820743e-01 -2.683428e-01 -4.942844e-01 -8.529414e-02 7.667443e-01 9.509163e-01 -2.037338e-01 -1.181166e+00 -2.322533e-01 1.210467e+00 1.202827e+00 1.436146e-01 -9.471875e-01 -5.771775e-03 -2.267129e-01 -1.897478e-01 1.324340e-01 3.946729e-01 2.753627e-02 -7.926109e-01 -2.981993e-01 5.299779e-01 6.504660e-01 -9.710672e-02 -7.339315e-01 -4.299904e-01 -1.111362e-04
<VARIANCE> 39
 7.888006e+00 3.074488e+01 2.143989e+01 1.664873e+01 2.268231e+01 2.055330e+01 2.457444e+01 2.763973e+01 2.709908e+01 2.440394e+01 2.260886e+01 2.804307e+01 8.073403e-03 3.168494e-01 9.513068e-01 1.218972e+00 1.111232e+00 1.302612e+00 1.847229e+00 2.248861e+00 2.217838e+00 2.442692e+00 2.329803e+00 2.091806e+00 1.878486e+00 1.762489e-04 5.021108e-02 1.213621e-01 1.835841e-01 1.900291e-01 2.405326e-01 3.452961e-01 2.817649e-01 4.356759e-01 2.754021e-01 3.370739e-01 3.318041e-01 2.964846e-01 1.691315e-05
<GCONST> 7.116625e+01
<MIXTURE> 3 9.220199e-02
<MEAN> 39
 1.335326e+01 9.178818e-01 -8.525281e+00 -2.346756e+00 4.758898e+00 2.254158e+00 -6.236487e-01 -3.554391e+00 -2.132080e+00 6.005673e+00 5.626497e+00 8.618681e-01 8.211600e-01 -1.496602e-01 -3.316083e-01 6.023810e-02 7.254443e-01 4.292217e-01 -3.255338e-01 -6.783869e-01 1.992608e-01 1.052271e+00 7.881554e-01 -3.169652e-01 -7.259544e-01 -5.465290e-03 -1.536727e-01 -1.534848e-01 8.316737e-02 3.090399e-01 -3.238823e-03 -4.868247e-01 -3.735968e-01 4.042114e-01 5.097722e-01 -4.828685e-02 -5.554384e-01 -2.755867e-01 -3.306374e-04
<VARIANCE> 39
 7.287543e+00 2.789707e+01 1.963717e+01 1.747163e+01 1.974819e+01 1.944475e+01 2.404301e+01 2.482306e+01 2.623688e+01 2.607392e+01 1.933689e+01 2.389678e+01 4.206110e-03 1.875549e-01 4.436625e-01 5.401197e-01 6.757789e-01 7.266224e-01 1.047348e+00 1.483010e+00 1.331012e+00 1.452768e+00 1.421945e+00 1.402540e+00 1.301129e+00 1.004433e-04 2.893705e-02 6.186848e-02 1.124910e-01 1.236439e-01 1.327987e-01 2.071438e-01 1.874069e-01 2.509418e-01 2.246297e-01 3.056366e-01 2.133170e-01 2.491072e-01 8.108510e-06
<GCONST> 5.681162e+01
<MIXTURE> 4 1.375225e-01
<MEAN> 39
 1.275517e+01 -1.502410e+00 -8.133495e+00 1.678295e-02 5.021954e+00 -4.472064e-01 -4.782480e+00 -2.857678e+00 2.001836e+00 6.929219e+00 2.678100e-01 -4.906712e+00 8.249019e-01 -5.229038e-01 -5.764531e-01 3.901810e-01 1.557389e+00 2.141067e-01 -1.719653e+00 -1.174657e+00 1.623322e+00 1.983139e+00 7.000029e-02 -1.448833e+00 -7.136911e-01 -3.576341e-03 -2.701093e-01 -4.390902e-02 4.274086e-01 2.354641e-01 -5.985259e-01 -6.749507e-01 5.221075e-01 8.518605e-01 -1.401364e-01 -8.520092e-01 -1.456178e-01 5.203546e-01 8.693142e-05
<VARIANCE> 39
 9.681518e+00 3.248708e+01 2.210071e+01 2.019990e+01 2.230587e+01 2.812738e+01 2.335587e+01 2.770122e+01 3.055398e+01 3.340957e+01 3.774751e+01 4.070676e+01 5.940662e-03 3.016767e-01 7.001111e-01 1.066626e+00 1.176445e+00 1.444336e+00 1.512758e+00 2.303253e+00 2.029539e+00 2.096325e+00 2.595392e+00 1.980188e+00 2.887555e+00 1.119295e-04 5.584416e-02 1.215750e-01 2.011205e-01 1.923331e-01 2.757984e-01 3.764058e-01 3.648287e-01 3.502787e-01 3.970417e-01 3.782006e-01 3.852084e-01 3.769071e-01 1.178162e-05
<GCONST> 7.317683e+01
<MIXTURE> 5 5.287126e-01
<MEAN> 39
 1.246060e+01 4.440437e+00 -7.287346e+00 -2.616896e+00 2.540303e+00 1.772163e+00 9.626116e-02 -5.947930e-01 -5.058423e-01 3.983634e+00 4.039554e+00 1.705056e+00 7.559162e-01 1.162919e-01 2.145744e-01 2.082191e-01 2.150364e-02 7.559184e-02 3.019895e-01 1.501970e-01 -4.944354e-02 1.181533e-01 1.069723e-01 1.476106e-01 1.642977e-01 -9.510614e-03 -4.340955e-02 -6.168495e-02 2.039292e-02 1.122437e-03 2.195917e-02 -2.409684e-02 -7.035378e-02 -8.010685e-03 4.031887e-02 4.031019e-02 -6.032905e-02 -1.117892e-01 -9.530190e-04
<VARIANCE> 39
 1.013969e+01 2.441371e+01 2.741641e+01 2.052445e+01 2.106775e+01 1.912435e+01 2.061698e+01 2.186850e+01 2.504943e+01 2.396540e+01 2.367432e+01 2.284254e+01 7.713730e-03 1.557462e-01 3.680099e-01 5.483696e-01 5.746335e-01 5.730765e-01 7.700580e-01 9.573554e-01 9.827725e-01 1.044354e+00 1.034100e+00 1.094949e+00 9.279712e-01 1.050695e-04 2.339580e-02 5.709263e-02 9.039940e-02 9.836634e-02 1.062808e-01 1.502852e-01 1.878113e-01 1.832454e-01 1.980858e-01 1.896191e-01 1.988932e-01 1.815659e-01 1.116139e-05
<GCONST> 5.264320e+01
<STATE> 5
<NUMMIXES> 5
<MIXTURE> 1 9.223310e-03
<MEAN> 39
 8.017946e+00 -5.757061e+00 -4.803853e+00 5.545772e+00 5.132024e+00 3.610287e+00 -6.476949e+00 2.607938e+00 4.377769e+00 3.910178e+00 3.964222e+00 8.266149e+00 8.963630e-01 -4.559195e-01 3.660266e-01 1.959690e+00 2.096876e+00 4.279481e-01 -2.205408e+00 7.086487e-01 3.030606e+00 9.209383e-01 1.465891e+00 2.283752e+00 2.334019e+00 1.584897e-02 -4.365631e-01 3.190333e-01 5.477545e-01 -6.035394e-01 -1.717095e+00 -6.788718e-01 7.307384e-01 -4.869312e-01 -6.562766e-01 3.067683e-01 4.218389e-01 -1.687934e-01 3.704911e-03
<VARIANCE> 39
 1.426195e+00 1.782961e+01 1.767759e+01 1.258814e+01 2.444986e+00 2.356614e+01 7.940974e+00 1.828966e+01 5.584118e+00 2.006458e+01 2.300953e+01 1.362455e+01 1.069083e-03 2.112869e-01 1.420550e+00 1.966499e+00 1.455483e+00 5.356023e+00 1.060675e+00 1.494079e+00 3.387230e+00 1.526816e+00 4.982860e+00 6.504347e+00 9.920247e+00 2.912605e-04 7.692207e-02 8.379595e-02 1.315810e-01 4.752872e-01 4.088884e-01 5.199667e-01 1.710484e-01 1.119798e+00 2.190208e-01 6.020017e-01 1.520214e-01 3.172597e-01 6.517546e-06
<GCONST> 6.622163e+01
<MIXTURE> 2 2.130646e-01
<MEAN> 39
 1.177665e+01 1.406851e+00 -4.197153e+00 6.288052e-01 3.486922e+00 4.843909e+00 -3.895082e-01 -7.005762e-01 3.528065e+00 6.516761e+00 5.797203e+00 6.184521e-01 6.975862e-01 -4.388596e-01 -3.238106e-01 7.304063e-01 7.021305e-01 5.473224e-01 -4.396834e-01 -2.140696e-01 7.120679e-01 7.587551e-01 2.265567e-01 -6.194248e-01 -2.352222e-01 -1.353611e-02 -9.611026e-02 -6.187192e-02 5.719059e-02 3.449187e-02 -4.765143e-02 -3.342066e-01 2.785910e-02 2.226858e-01 -1.043863e-01 -4.119029e-01 -4.514618e-01 6.075646e-02 5.183489e-04
<VARIANCE> 39
 1.419093e+01 3.619456e+01 3.124600e+01 1.761198e+01 1.518264e+01 2.137275e+01 1.952947e+01 2.738447e+01 1.869574e+01 1.854897e+01 2.239788e+01 3.403071e+01 1.206561e-02 4.390727e-01 7.120356e-01 1.973532e+00 1.351421e+00 1.926845e+00 2.238464e+00 2.228714e+00 1.890862e+00 2.672086e+00 1.811858e+00 2.242536e+00 2.609103e+00 2.674703e-04 1.081401e-01 1.493146e-01 2.492496e-01 2.547850e-01 2.760139e-01 3.056660e-01 3.398631e-01 3.529583e-01 3.813434e-01 3.117350e-01 3.140923e-01 3.856803e-01 3.996538e-05
<GCONST> 7.635279e+01
<MIXTURE> 3 3.504474e-01
<MEAN> 39
 1.184122e+01 4.617342e+00 -6.096017e+00 -3.100722e+00 2.247675e+00 3.427075e+00 9.205251e-01 3.037525e-01 4.602162e-01 3.783331e+00 3.921076e+00 1.162501e+00 6.939144e-01 -2.133562e-01 1.035756e-01 7.825500e-01 9.645971e-02 2.351427e-01 3.353930e-01 1.743790e-01 2.035568e-01 3.497166e-01 7.171044e-02 2.451281e-02 -5.659935e-02 -2.285010e-02 -2.142848e-01 -9.534335e-02 2.817038e-01 1.640693e-01 6.770577e-02 -1.832940e-02 -9.170700e-02 -5.830532e-02 -1.976280e-02 -1.654992e-01 -2.058375e-01 -1.330942e-01 -2.804312e-03
<VARIANCE> 39
 2.520818e+01 2.260388e+01 2.584928e+01 2.005118e+01 2.570077e+01 1.839070e+01 1.898369e+01 2.035323e+01 1.856620e+01 2.612660e+01 2.284541e+01 2.063654e+01 1.499508e-02 3.242227e-01 6.506258e-01 1.037483e+00 9.273587e-01 9.791232e-01 1.168994e+00 1.363278e+00 1.222381e+00 1.356264e+00 1.806745e+00 1.434103e+00 1.136485e+00 1.409263e-04 4.943855e-02 8.323283e-02 1.981413e-01 1.694038e-01 1.855175e-01 1.864996e-01 2.829737e-01 2.544442e-01 2.513732e-01 3.218433e-01 2.705574e-01 2.293595e-01 2.875073e-05
<GCONST> 6.546328e+01
<MIXTURE> 4 1.820258e-01
<MEAN> 39
 1.144271e+01 -2.055499e-01 -9.468279e+00 2.922113e+00 6.599043e+00 -1.849516e+00 -6.447663e+00 2.091291e-01 7.585869e+00 8.917943e+00 4.436440e-01 -5.497399e+00 7.462628e-01 -1.153631e+00 -1.094822e+00 1.269125e+00 1.752028e+00 5.958290e-02 -3.022238e+00 5.581680e-02 3.199314e+00 2.048604e+00 -1.592562e+00 -2.084578e+00 3.091460e-02 -8.738210e-03 -2.954524e-01 -3.994461e-02 9.153749e-01 -2.114619e-01 -9.989427e-01 -1.013861e-01 1.198113e+00 3.742131e-01 -1.097479e+00 -1.059280e+00 3.764037e-01 9.740449e-01 -3.342498e-04
<VARIANCE> 39
 1.282205e+01 2.416779e+01 3.229428e+01 1.468537e+01 2.123308e+01 3.040026e+01 3.626843e+01 2.691334e+01 3.380508e+01 2.988937e+01 2.834110e+01 3.053933e+01 1.423631e-02 5.116189e-01 1.089597e+00 2.335378e+00 2.204253e+00 2.146017e+00 3.736180e+00 3.264983e+00 2.718857e+00 2.837208e+00 3.658868e+00 2.283654e+00 3.525854e+00 5.178320e-04 1.444199e-01 2.514786e-01 4.193533e-01 3.590870e-01 4.479191e-01 6.099964e-01 5.780590e-01 4.772959e-01 4.623062e-01 5.597320e-01 6.107797e-01 3.892713e-01 6.883984e-05
<GCONST> 8.837173e+01
<MIXTURE> 5 2.452381e-01
<MEAN> 39
 1.153001e+01 -2.785724e+00 -6.052885e+00 3.921781e+00 4.568824e+00 -5.597559e+00 -6.416468e+00 2.880592e+00 6.335832e+00 4.258594e+00 -4.916175e+00 -5.150492e+00 8.119655e-01 -9.499784e-01 -5.087478e-01 1.503046e+00 1.784618e+00 -1.754684e+00 -2.653059e+00 9.757783e-01 3.264158e+00 2.295630e-01 -2.212312e+00 -6.931909e-01 1.390607e+00 -3.090219e-03 -3.649479e-01 2.531861e-01 6.962695e-01 -5.032313e-01 -9.732385e-01 2.950712e-01 1.155298e+00 -3.020194e-01 -1.017210e+00 -2.600638e-01 8.109235e-01 3.740623e-01 1.890911e-04
<VARIANCE> 39
 1.038780e+01 2.687899e+01 2.564630e+01 1.663964e+01 1.882248e+01 2.352270e+01 2.484021e+01 2.641754e+01 3.105678e+01 3.965038e+01 3.466295e+01 4.131045e+01 6.388508e-03 5.103046e-01 5.914910e-01 1.234317e+00 1.335294e+00 1.590855e+00 2.465659e+00 2.324751e+00 2.143701e+00 2.287066e+00 2.179002e+00 2.276667e+00 1.980907e+00 1.225035e-04 8.118441e-02 1.755890e-01 2.962748e-01 2.867145e-01 2.789855e-01 3.261725e-01 3.954827e-01 3.762023e-01 3.939579e-01 4.241128e-01 3.179394e-01 4.517146e-01 1.339905e-05
<GCONST> 7.568527e+01
<STATE> 6
<NUMMIXES> 5
<MIXTURE> 1 1.850889e-02
<MEAN> 39
 5.949868e+00 -6.743233e+00 -9.671479e+00 -3.271801e+00 -4.833035e+00 -5.933428e+00 -4.494935e+00 -3.920658e+00 -1.428840e+00 3.324652e+00 8.311715e+00 1.680223e+01 8.461697e-01 -9.266396e-01 -2.676850e-02 1.125661e+00 -1.270940e-01 -1.008388e+00 -1.259302e+00 9.178826e-02 -4.675674e-02 4.983815e-03 5.204259e-01 1.823877e+00 1.774958e+00 1.763215e-03 3.214411e-01 7.524030e-01 5.414227e-01 1.918362e-01 4.507094e-01 7.241307e-01 3.918365e-01 1.392701e-01 1.393865e-01 1.273864e-01 -4.081456e-01 -1.265164e+00 -4.070397e-03
<VARIANCE> 39
 5.896307e+00 3.292830e+01 4.346044e+01 2.207949e+01 1.361422e+01 2.006317e+01 4.617366e+01 3.494938e+01 1.449761e+01 9.581876e+00 3.309056e+01 4.859104e+01 1.317642e-02 9.672509e-01 1.256875e+00 3.810963e+00 7.457222e-01 3.488081e+00 2.117899e+00 2.177036e+00 1.478582e+00 1.846370e+00 1.232555e+00 3.983110e+00 4.331549e+00 1.324043e-04 8.649740e-02 6.081175e-01 2.157635e-01 2.425186e-01 3.425832e-01 4.963512e-01 1.097722e+00 5.002310e-01 2.805585e-01 4.110871e-01 3.440011e-01 1.005606e+00 3.413972e-05
<GCONST> 8.217226e+01
<MIXTURE> 2 1.935932e-01
<MEAN> 39
 8.247497e+00 -4.246423e+00 -9.608127e-01 7.694613e+00 -5.536352e+00 -1.148852e+01 1.868588e+00 9.055463e+00 -3.807192e-01 -1.963443e+00 -2.577540e+00 -1.683998e-01 8.195531e-01 -2.030089e+00 9.120068e-01 3.460743e+00 -1.392951e+00 -3.554069e+00 3.221582e-01 2.955839e+00 -8.455820e-01 -1.737177e+00 8.181071e-03 1.433150e+00 -2.403918e-02 -2.012161e-03 -1.355917e-01 8.695821e-01 2.155723e-01 -1.274619e+00 8.803496e-01 1.405116e+00 -7.642244e-01 -1.491428e+00 4.053045e-01 6.177077e-01 7.709943e-02 -5.213354e-01 -4.628538e-03
<VARIANCE> 39
 1.287745e+01 2.368578e+01 2.137415e+01 1.432981e+01 2.007377e+01 2.946883e+01 5.221006e+01 2.996794e+01 2.487259e+01 3.765485e+01 3.927678e+01 4.020090e+01 8.944115e-03 6.471837e-01 1.095077e+00 2.596306e+00 2.555699e+00 1.934070e+00 2.778275e+00 3.176161e+00 3.112403e+00 2.447862e+00 3.405144e+00 2.315182e+00 2.895722e+00 1.149210e-04 1.761823e-01 2.479995e-01 3.631845e-01 3.565471e-01 4.290537e-01 5.377047e-01 9.082255e-01 5.691547e-01 6.027172e-01 5.045533e-01 4.916515e-01 5.193158e-01 4.241890e-05
<GCONST> 8.689812e+01
<MIXTURE> 3 1.328860e-01
<MEAN> 39
 7.096501e+00 -2.642352e+00 3.419095e+00 4.196115e+00 -3.766556e-01 -1.251935e+01 2.219352e+00 1.090742e+01 3.878217e+00 -1.606673e+00 3.182313e+00 7.766278e-01 7.891638e-01 -1.500507e+00 4.145323e-02 4.643846e+00 -8.480990e-01 -3.433013e+00 1.009574e+00 2.713141e+00 -1.246426e+00 -2.223681e+00 -2.580944e-01 1.215384e+00 5.748044e-01 -1.054161e-02 -1.277730e-01 7.192074e-01 -1.289380e-01 -4.433043e-01 3.337806e-01 1.926347e+00 -5.992500e-01 -1.752149e+00 7.212702e-02 1.071449e+00 -3.657221e-01 -2.747411e-01 -7.857542e-03
<VARIANCE> 39
 1.084448e+01 2.510317e+01 2.004106e+01 2.453470e+01 2.230286e+01 3.472439e+01 4.412126e+01 2.817819e+01 2.402873e+01 2.998399e+01 2.833100e+01 2.131754e+01 8.276179e-03 1.187616e+00 3.001827e+00 4.329103e+00 3.665941e+00 2.333072e+00 4.210736e+00 3.216381e+00 4.073877e+00 2.762779e+00 3.390013e+00 3.107035e+00 2.149183e+00 2.391772e-04 2.041083e-01 3.493376e-01 5.619015e-01 4.644494e-01 6.938517e-01 7.292264e-01 6.149366e-01 5.664666e-01 5.655246e-01 6.832284e-01 7.391977e-01 4.747247e-01 5.403434e-05
<GCONST> 9.259520e+01
<MIXTURE> 4 3.336803e-01
<MEAN> 39
 1.040989e+01 3.894286e+00 -3.730727e+00 -2.355817e+00 2.897285e+00 3.358123e+00 -1.662303e-01 4.704357e-01 1.034854e+00 3.179181e+00 1.906814e+00 -8.154789e-01 6.673066e-01 -5.565585e-01 -1.885058e-02 1.209899e+00 4.624485e-01 4.329220e-01 6.587277e-02 5.772585e-02 6.369427e-02 -5.784577e-02 -7.545362e-01 -6.396287e-01 -5.573479e-02 -2.352888e-02 -2.511288e-01 1.322203e-02 3.191641e-01 2.292986e-01 1.060211e-01 -4.469782e-02 2.073389e-02 -1.165783e-01 -1.250598e-01 -1.902050e-01 -3.251958e-02 7.197772e-02 -4.084524e-03
<VARIANCE> 39
 2.766930e+01 2.550118e+01 3.686084e+01 2.214990e+01 2.592562e+01 2.257194e+01 2.223422e+01 2.336222e+01 2.962449e+01 3.028073e+01 2.846453e+01 3.105603e+01 1.988214e-02 4.774485e-01 7.570516e-01 1.663337e+00 1.374555e+00 1.332783e+00 1.486603e+00 1.881148e+00 1.859044e+00 1.782548e+00 2.163561e+00 2.228534e+00 2.175175e+00 2.754863e-04 1.044710e-01 1.782719e-01 3.679425e-01 2.181054e-01 2.398143e-01 2.594466e-01 2.818025e-01 2.686394e-01 4.065657e-01 3.511249e-01 3.848406e-01 2.986101e-01 7.691605e-05
<GCONST> 7.826100e+01
<MIXTURE> 5 3.213300e-01
<MEAN> 39
 9.776039e+00 -2.952319e+00 -4.391597e+00 6.464319e+00 3.157898e+00 -9.224342e+00 -3.785342e+00 8.569993e+00 7.682991e+00 5.528442e-01 -4.400426e+00 -1.156169e+00 7.812537e-01 -1.566419e+00 -4.514017e-01 2.853380e+00 7.207882e-01 -2.939643e+00 -1.971125e+00 2.885994e+00 2.226478e+00 -1.395880e+00 -2.227277e+00 6.252700e-01 1.502529e+00 -3.396124e-03 -3.004670e-01 4.872814e-01 6.821845e-01 -9.375953e-01 -5.436491e-01 1.271457e+00 6.106789e-01 -1.409392e+00 -9.384503e-01 5.220329e-01 8.036657e-01 -1.277215e-01 -2.149360e-03
<VARIANCE> 39
 1.335774e+01 2.462412e+01 3.543025e+01 1.657804e+01 2.341804e+01 2.991687e+01 3.750493e+01 2.763319e+01 3.027332e+01 3.527833e+01 3.386807e+01 3.255539e+01 1.326119e-02 6.868165e-01 1.729047e+00 2.971876e+00 2.076744e+00 2.670935e+00 3.176585e+00 3.165024e+00 2.734700e+00 2.678104e+00 3.330185e+00 2.854056e+00 2.814195e+00 2.999994e-04 1.696953e-01 3.475761e-01 5.211550e-01 4.553137e-01 4.442747e-01 6.061541e-01 5.272497e-01 4.710794e-01 5.549189e-01 5.553818e-01 5.433969e-01 5.077072e-01 6.727120e-05
<GCONST> 9.040294e+01
<STATE> 7
<NUMMIXES> 5
<MIXTURE> 1 9.522416e-02
<MEAN> 39
 9.409054e+00 -1.199443e-01 -8.066090e+00 -3.538739e+00 8.791609e-01 1.481809e-01 1.316734e-01 -2.162074e+00 -2.139105e-01 2.460108e+00 3.047852e+00 5.869714e-01 7.928046e-01 2.394934e-01 6.738073e-01 3.514932e-01 -1.476957e-01 2.326965e-01 1.109482e+00 1.031836e+00 6.326733e-01 2.118043e-01 2.686416e-01 9.888473e-01 9.357365e-01 -1.797027e-02 -5.635883e-02 2.066930e-02 1.812017e-01 1.268927e-01 4.159269e-02 2.634784e-01 -1.766766e-01 3.748259e-02 9.798774e-03 1.210037e-01 1.136848e-01 4.734568e-02 -1.547005e-03
<VARIANCE> 39
 2.091823e+01 2.066601e+01 3.047830e+01 2.060802e+01 2.553453e+01 2.573600e+01 2.078410e+01 1.398235e+01 2.461507e+01 2.634807e+01 7.097471e+01 6.651095e+01 1.192241e-02 3.545986e-01 5.088362e-01 1.067008e+00 1.066674e+00 1.314949e+00 1.493814e+00 1.594059e+00 9.707384e-01 1.178490e+00 1.486958e+00 2.415183e+00 2.554028e+00 3.975818e-04 1.360456e-01 1.064819e-01 1.705795e-01 1.764450e-01 2.882244e-01 3.891399e-01 2.256262e-01 2.630551e-01 2.415220e-01 2.946275e-01 6.894217e-01 3.679587e-01 9.623630e-05
<GCONST> 7.491987e+01
<MIXTURE> 2 2.755868e-01
<MEAN> 39
 5.067199e+00 -5.637614e-01 4.946271e+00 3.188612e+00 -9.635072e+00 -7.596651e+00 4.611520e+00 4.484637e+00 -1.398384e+00 1.841298e+00 2.128440e-02 -1.895297e+00 7.883989e-01 -1.987805e+00 2.678945e+00 2.691452e+00 -2.064970e+00 -6.252466e-01 2.627934e+00 3.780232e-01 -2.128613e+00 -1.358975e-01 4.140997e-01 5.344822e-01 -3.503831e-01 -1.836819e-02 5.648380e-02 3.311310e-01 -6.215838e-01 8.295517e-02 1.875861e+00 9.478244e-01 -1.206973e+00 -4.255260e-01 6.671191e-01 8.230685e-02 -2.118045e-01 6.342983e-03 -1.588619e-02
<VARIANCE> 39
 1.544103e+01 2.815582e+01 1.969724e+01 2.146056e+01 2.687869e+01 4.236718e+01 4.353057e+01 3.526165e+01 2.667142e+01 4.015509e+01 3.369613e+01 4.570179e+01 1.201831e-02 1.253988e+00 1.626701e+00 2.364672e+00 3.946087e+00 3.248563e+00 4.072279e+00 4.530659e+00 2.603760e+00 3.812363e+00 3.396819e+00 2.961814e+00 2.531977e+00 3.727152e-04 4.571287e-01 3.656597e-01 4.604638e-01 5.298917e-01 4.240039e-01 8.698233e-01 6.955647e-01 7.605731e-01 5.254534e-01 6.905743e-01 4.360585e-01 5.664726e-01 1.043953e-04
<GCONST> 9.633187e+01
<MIXTURE> 3 1.944566e-01
<MEAN> 39
 5.802396e+00 -4.459530e+00 9.365886e+00 2.044979e+00 -7.290000e+00 -7.685114e+00 6.525684e+00 3.617924e+00 -4.291912e-01 1.200522e+00 2.829071e+00 -1.581570e+00 8.017411e-01 -1.607019e+00 1.380444e+00 3.994261e+00 -2.252399e+00 -1.796459e+00 2.961688e+00 4.234583e-01 -3.449427e+00 -2.648671e-01 1.203287e+00 -8.756651e-02 -1.889259e-01 -1.295355e-02 -7.416095e-02 9.463691e-01 -1.203967e+00 -2.272415e-01 1.375976e+00 7.482793e-01 -1.453820e+00 -3.266944e-01 8.797867e-01 1.001598e-01 -6.653252e-01 -8.824119e-02 -4.563158e-03
<VARIANCE> 39
 1.355346e+01 2.950271e+01 3.164482e+01 3.101213e+01 2.141163e+01 3.202691e+01 4.574866e+01 3.489996e+01 3.223600e+01 3.796875e+01 4.272333e+01 5.063397e+01 6.950499e-03 1.517112e+00 3.061436e+00 4.297928e+00 5.323872e+00 3.607040e+00 3.941747e+00 4.238943e+00 4.327977e+00 3.681878e+00 3.294052e+00 3.696147e+00 3.046368e+00 3.170933e-04 3.462355e-01 3.618593e-01 7.547209e-01 7.015583e-01 6.211467e-01 6.639657e-01 7.569801e-01 7.780712e-01 5.967222e-01 7.680888e-01 7.429151e-01 6.329399e-01 9.003242e-05
<GCONST> 1.003960e+02
<MIXTURE> 4 8.640423e-02
<MEAN> 39
 6.133699e+00 -7.510202e+00 -8.971885e+00 9.346948e+00 3.243573e+00 -2.038574e+00 8.728523e+00 1.163193e+01 1.185960e+00 -5.259424e+00 -4.050538e-01 6.218056e+00 6.110582e-01 -2.033124e+00 -1.333385e+00 1.785460e+00 7.325850e-01 -1.178010e+00 1.071276e+00 2.373601e+00 -1.085524e+00 -3.314602e+00 -1.132686e-01 2.990006e+00 1.480267e+00 -2.078247e-02 -3.704587e-03 4.237034e-01 1.545264e-01 -6.338138e-01 1.131513e-01 4.947263e-01 -8.787183e-01 -1.369780e+00 2.232102e-01 1.474077e+00 3.415715e-01 -1.130272e+00 8.746427e-04
<VARIANCE> 39
 2.732276e+01 2.286614e+01 3.063413e+01 3.027987e+01 4.104476e+01 4.201869e+01 5.589938e+01 4.052283e+01 6.697902e+01 4.332063e+01 4.866354e+01 4.883650e+01 2.078085e-02 2.367435e+00 1.545643e+00 1.709964e+00 1.933308e+00 3.024331e+00 3.893871e+00 4.936446e+00 6.902818e+00 4.457477e+00 8.972726e+00 4.750740e+00 5.433984e+00 2.190867e-03 4.301933e-01 1.773600e-01 2.831817e-01 3.844348e-01 6.334612e-01 5.843942e-01 8.409422e-01 1.065337e+00 1.315972e+00 7.273091e-01 1.300455e+00 7.390738e-01 3.620663e-04
<GCONST> 1.074004e+02
<MIXTURE> 5 3.483275e-01
<MEAN> 39
 9.586555e+00 4.611430e+00 -9.467391e-01 -5.911840e-01 4.240913e+00 2.948466e+00 -5.011605e-01 3.892848e-01 8.845217e-01 1.354256e+00 4.539967e-01 -1.041675e+00 6.258663e-01 -1.155982e+00 1.765823e-03 2.188399e+00 1.010313e+00 8.680437e-01 -1.778929e-01 -3.487303e-02 -2.851470e-01 -3.540153e-01 -1.080987e+00 -8.843474e-01 -6.533681e-02 -3.236741e-02 -3.899493e-01 -1.216405e-01 2.004856e-01 2.373180e-01 7.682265e-02 5.772983e-02 1.703573e-01 1.802748e-02 6.635997e-02 1.138241e-01 2.166757e-01 1.802373e-01 -1.035825e-02
<VARIANCE> 39
 2.802621e+01 2.546190e+01 3.704670e+01 1.920735e+01 2.640645e+01 2.748683e+01 2.422247e+01 2.884321e+01 3.555612e+01 3.691636e+01 2.523391e+01 2.704131e+01 1.480248e-02 6.787091e-01 1.609289e+00 2.836147e+00 2.010885e+00 1.974104e+00 1.932136e+00 2.500247e+00 2.449737e+00 3.337317e+00 2.934891e+00 2.219224e+00 2.290901e+00 5.745958e-04 1.340957e-01 2.032278e-01 3.189756e-01 2.898085e-01 3.259919e-01 2.972087e-01 3.033511e-01 3.939940e-01 4.431451e-01 4.573514e-01 3.790050e-01 2.904265e-01 1.262170e-04
<GCONST> 8.564773e+01
<STATE> 8
<NUMMIXES> 5
<MIXTURE> 1 1.568862e-01
<MEAN> 39
 2.316367e+00 4.898685e+00 1.038677e+01 3.370340e+00 -6.437002e+00 2.377422e+00 2.004676e+00 1.842705e+00 4.113445e+00 4.291180e+00 -1.143654e+00 -7.039558e-01 7.078167e-01 -2.349118e+00 1.687641e+00 1.200010e+00 6.864238e-01 2.495135e+00 3.947134e+00 -7.455260e-01 -8.823597e-01 1.151791e+00 1.095413e-02 -1.658757e-01 4.725724e-01 -6.198013e-02 -3.439619e-01 -8.695621e-01 -1.359120e+00 3.947664e-01 1.253620e+00 -4.540134e-01 -3.737060e-01 7.641056e-01 1.672783e-01 -2.525014e-01 2.287594e-01 2.685845e-01 -2.627199e-02
<VARIANCE> 39
 1.405316e+01 1.997611e+01 1.634701e+01 2.953332e+01 2.495698e+01 3.436765e+01 3.023706e+01 2.658456e+01 2.572638e+01 2.874479e+01 2.230581e+01 2.260166e+01 6.805394e-03 3.347046e+00 1.643211e+00 2.276941e+00 2.334396e+00 3.083568e+00 4.629141e+00 3.461717e+00 3.551974e+00 2.836871e+00 3.066350e+00 2.221072e+00 2.345262e+00 7.818269e-04 2.906125e-01 3.194947e-01 3.717358e-01 6.896046e-01 5.822393e-01 6.413568e-01 7.753837e-01 6.742969e-01 5.538483e-01 5.581672e-01 4.249182e-01 4.236396e-01 7.435877e-05
<GCONST> 9.221259e+01
<MIXTURE> 2 1.696346e-01
<MEAN> 39
 3.665411e+00 6.984757e+00 7.090260e+00 -2.835101e+00 -3.467308e+00 -2.570227e+00 -4.030521e+00 1.217375e-01 1.222902e+00 -3.480083e+00 -1.551657e+00 -2.125058e+00 7.509314e-01 -6.465203e-01 1.516875e+00 8.271405e-01 1.655897e+00 3.430940e+00 1.601551e+00 -1.311891e+00 -1.688075e-02 -5.563220e-01 -4.695859e-01 5.980231e-01 5.477977e-01 -7.047828e-02 -3.467546e-01 -1.281026e+00 -7.287278e-01 1.202502e+00 3.708198e-01 -4.190727e-02 8.056695e-01 9.179661e-01 9.781132e-02 6.391960e-01 2.311089e-01 1.819021e-01 -2.883206e-02
<VARIANCE> 39
 1.798987e+01 2.220874e+01 2.287481e+01 2.945004e+01 3.842331e+01 3.704630e+01 2.963168e+01 3.249329e+01 3.809567e+01 5.508486e+01 5.976378e+01 5.406002e+01 1.043698e-02 4.231207e+00 2.508778e+00 2.262698e+00 3.940608e+00 2.074069e+00 3.402157e+00 4.158591e+00 3.465667e+00 4.059433e+00 4.567254e+00 2.989975e+00 3.318754e+00 9.613507e-04 4.989993e-01 3.433810e-01 4.058129e-01 6.709631e-01 9.350366e-01 5.566343e-01 9.878603e-01 6.730597e-01 9.394407e-01 7.290936e-01 7.111397e-01 5.113935e-01 1.288427e-04
<GCONST> 1.024449e+02
<MIXTURE> 3 1.286570e-01
<MEAN> 39
 3.040790e+00 5.597890e+00 5.090091e+00 1.223396e+00 2.868813e+00 -4.907573e+00 1.103671e+00 3.765616e-01 -3.115056e+00 -3.989811e-01 -1.129808e+00 5.845331e-01 6.464545e-01 -1.553719e+00 6.592095e-01 1.628927e+00 9.042747e-01 7.304406e-01 9.083757e-01 -1.371756e-01 -1.150923e+00 -4.307101e-01 -2.486804e-01 2.673075e-01 1.953757e-01 -4.730166e-02 -2.176391e-02 -5.750340e-01 -5.688915e-01 2.880412e-01 -6.826736e-02 7.066836e-01 -1.151086e-01 3.131904e-01 7.425100e-01 2.659679e-01 1.012902e-01 -7.576980e-02 -1.472184e-02
<VARIANCE> 39
 3.405546e+01 7.887853e+01 4.945337e+01 4.459037e+01 5.634802e+01 5.005737e+01 9.159558e+01 5.227243e+01 5.456829e+01 5.050815e+01 6.037101e+01 4.400669e+01 1.627992e-02 1.937671e+00 3.223964e+00 3.161215e+00 4.301448e+00 3.942849e+00 8.218184e+00 3.892204e+00 2.916294e+00 4.081668e+00 6.079562e+00 4.930132e+00 3.022667e+00 2.345127e-03 5.223945e-01 8.076948e-01 4.673510e-01 7.125254e-01 1.076151e+00 7.130315e-01 1.687961e+00 9.221833e-01 1.124375e+00 7.509201e-01 1.430694e+00 7.066869e-01 2.712584e-04
<GCONST> 1.154304e+02
<MIXTURE> 4 2.378133e-01
<MEAN> 39
 3.264700e+00 -8.803772e-01 1.373373e+01 -3.579068e+00 -7.565025e+00 -2.485940e+00 3.472318e+00 -3.288326e+00 3.378542e+00 2.748510e+00 -1.425792e+00 -1.876588e+00 7.884774e-01 -1.508965e+00 2.852880e+00 1.116563e+00 -2.298183e+00 9.282874e-01 2.105671e+00 -2.156189e+00 -2.192589e+00 1.047034e+00 -4.702578e-01 -8.276694e-01 2.975487e-01 -1.233109e-02 9.772796e-02 4.446129e-01 -1.828914e+00 5.749474e-01 1.129497e+00 -4.984781e-01 -7.757580e-01 1.101691e+00 1.700079e-01 -5.819305e-01 -9.499693e-03 1.019825e-01 3.560093e-04
<VARIANCE> 39
 1.445177e+01 3.008287e+01 5.105987e+01 4.649821e+01 3.185718e+01 3.620773e+01 4.979123e+01 4.391582e+01 3.943430e+01 3.486827e+01 4.336679e+01 4.909989e+01 1.009223e-02 1.804729e+00 2.561078e+00 4.744443e+00 4.540720e+00 3.879652e+00 3.766259e+00 4.401766e+00 4.785349e+00 3.407688e+00 4.416138e+00 3.895609e+00 3.414257e+00 3.926311e-04 4.514166e-01 3.859148e-01 9.245899e-01 1.476668e+00 7.770697e-01 7.429635e-01 9.088261e-01 1.225855e+00 9.913162e-01 8.231543e-01 8.333367e-01 6.646546e-01 1.806480e-04
<GCONST> 1.070550e+02
<MIXTURE> 5 3.070081e-01
<MEAN> 39
 8.919036e+00 3.275382e+00 -1.128354e+00 2.029298e-01 5.002851e+00 3.330986e+00 6.307178e-01 1.131259e-01 7.278665e-01 1.274923e+00 1.345536e+00 3.746083e-01 6.110116e-01 -1.273999e+00 -2.453274e-01 1.504067e+00 8.082973e-01 4.197635e-01 5.041144e-01 3.456741e-01 1.224640e-01 2.223567e-01 -1.524749e-01 2.768455e-01 4.573982e-01 -4.436149e-02 -3.544748e-01 -2.627189e-01 -9.261453e-02 7.512518e-03 -1.235514e-01 1.808565e-02 2.889230e-02 8.435977e-02 1.630802e-01 2.325931e-01 1.658123e-01 -7.102611e-03 -1.067939e-02
<VARIANCE> 39
 2.683366e+01 3.580161e+01 5.296529e+01 2.898026e+01 2.926012e+01 2.857768e+01 2.842166e+01 3.385151e+01 4.004471e+01 3.630759e+01 3.877581e+01 3.946743e+01 2.036268e-02 1.228877e+00 1.595049e+00 2.220195e+00 2.231306e+00 1.925987e+00 1.619706e+00 1.596107e+00 2.132417e+00 2.954530e+00 2.313042e+00 3.026386e+00 2.253749e+00 1.339328e-03 1.852117e-01 1.900848e-01 3.854952e-01 3.713049e-01 3.029478e-01 3.263489e-01 4.575199e-01 4.236630e-01 5.574260e-01 5.612141e-01 5.369880e-01 5.128267e-01 2.054907e-04
<GCONST> 9.187529e+01
<STATE> 9
<NUMMIXES> 5
<MIXTURE> 1 1.467825e-01
<MEAN> 39
 -5.403877e+00 5.475962e+00 1.028002e+01 8.127525e+00 3.365648e+00 1.062811e+01 2.375450e+00 4.407060e+00 4.779642e+00 1.452413e+00 -1.988440e-01 8.671284e-01 5.409389e-01 -3.373948e+00 -1.470105e+00 -1.466427e+00 4.762987e-01 2.174416e+00 2.020701e+00 1.533984e-01 9.273033e-01 6.371947e-01 1.511908e-01 1.032855e+00 1.252485e+00 -1.021804e-01 3.408412e-01 -1.028686e+00 -9.980083e-01 -4.459932e-01 -5.851558e-01 -1.410771e+00 7.688654e-03 2.621549e-01 -2.638227e-01 -2.181905e-02 2.324896e-01 7.503036e-03 -7.981320e-03
<VARIANCE> 39
 2.541684e+01 3.030178e+01 2.672390e+01 1.760762e+01 2.631733e+01 3.129039e+01 3.350237e+01 2.887862e+01 3.549645e+01 3.467378e+01 2.992270e+01 1.904969e+01 9.651990e-03 1.939488e+00 1.814023e+00 2.126920e+00 2.447040e+00 4.006946e+00 4.523076e+00 3.479672e+00 4.174524e+00 2.773950e+00 2.926976e+00 3.180893e+00 2.002347e+00 1.082250e-03 3.172448e-01 2.979282e-01 4.005610e-01 3.976926e-01 5.346972e-01 5.514744e-01 5.957382e-01 6.073709e-01 7.344775e-01 6.932878e-01 6.187697e-01 4.311111e-01 1.955490e-04
<GCONST> 9.551445e+01
<MIXTURE> 2 2.008961e-01
<MEAN> 39
 7.273571e+00 1.921076e+00 5.806190e-01 1.858867e+00 4.828279e+00 2.618782e+00 1.424748e+00 8.554137e-01 1.145024e+00 8.092700e-01 2.266920e+00 2.266147e+00 5.991682e-01 -7.312056e-01 -1.593191e-01 1.036900e+00 6.164428e-01 4.767819e-02 1.275963e-01 -1.252407e-01 -1.323397e-01 -8.976637e-02 -1.957078e-02 -1.454722e-01 -2.658216e-01 -1.671028e-02 -8.993604e-02 -7.231863e-02 -1.032921e-01 -4.947805e-02 -8.013628e-02 -2.844409e-02 -1.026665e-01 -2.191689e-03 5.491750e-02 1.319395e-01 -1.330301e-01 -1.842279e-01 -2.865655e-04
<VARIANCE> 39
 2.821649e+01 3.236302e+01 5.920306e+01 3.683138e+01 4.362903e+01 4.723004e+01 3.807273e+01 3.394109e+01 3.712931e+01 3.648024e+01 3.665037e+01 3.766683e+01 3.033059e-02 1.075956e+00 9.339090e-01 1.128136e+00 1.626880e+00 1.456250e+00 1.919787e+00 1.765275e+00 2.136385e+00 2.553983e+00 2.178621e+00 2.291493e+00 1.789864e+00 1.441998e-03 1.431380e-01 1.503922e-01 1.989605e-01 1.815459e-01 2.317198e-01 4.910985e-01 4.123986e-01 2.878267e-01 3.791257e-01 4.689013e-01 3.996697e-01 3.539735e-01 1.392489e-04
<GCONST> 8.744965e+01
<MIXTURE> 3 1.509952e-01
<MEAN> 39
 2.889008e+00 -3.497599e+00 2.122089e-01 1.465249e+00 4.477289e+00 5.010872e+00 2.536263e+00 2.785131e+00 4.725276e+00 5.963270e+00 5.143745e+00 1.816146e+00 4.429728e-01 -2.153495e+00 -8.786108e-01 1.431666e+00 9.104803e-01 6.761434e-01 8.492247e-01 3.296191e-01 2.705210e-01 3.981619e-01 -2.787608e-01 -4.365570e-01 -4.761133e-02 -7.896583e-02 1.015818e-01 2.058690e-01 -1.492922e-01 8.436454e-02 2.563918e-02 -3.099843e-01 -1.177679e-01 -7.704631e-02 -2.544398e-01 -3.679901e-01 -3.520974e-01 -2.313682e-02 5.204375e-03
<VARIANCE> 39
 2.607785e+01 3.654335e+01 5.381406e+01 4.825084e+01 4.083880e+01 2.877082e+01 3.354823e+01 4.392232e+01 5.261830e+01 3.265162e+01 6.017405e+01 5.456054e+01 3.036502e-02 2.498833e+00 2.088635e+00 2.479558e+00 2.583125e+00 3.223284e+00 3.848138e+00 4.771693e+00 3.555848e+00 4.524897e+00 5.226982e+00 3.207166e+00 5.151227e+00 4.030266e-03 4.121349e-01 3.169452e-01 5.917050e-01 5.434369e-01 5.566748e-01 5.267251e-01 5.519796e-01 6.910461e-01 8.908190e-01 7.932522e-01 1.320480e+00 1.188206e+00 5.668093e-04
<GCONST> 1.093941e+02
<MIXTURE> 4 1.753978e-01
<MEAN> 39
 -2.408831e-01 6.029637e+00 1.076931e+01 -6.338177e+00 -2.163269e+00 -3.873594e+00 -1.974250e+00 -3.140364e+00 3.968564e+00 -1.629899e+00 -1.120864e+00 -6.422879e-01 7.594401e-01 -1.670864e+00 2.960094e+00 -2.295994e+00 -1.243210e+00 1.352030e+00 2.277678e-01 -1.599662e+00 6.255906e-01 4.227115e-01 -1.194733e+00 -1.147582e-02 3.987434e-01 4.613390e-03 2.746302e-01 -4.036395e-01 -9.945487e-01 4.886977e-01 -1.192769e-01 -5.513014e-01 3.790734e-01 1.046369e+00 -1.837117e-01 7.767650e-02 2.399888e-01 -1.178709e-01 9.171887e-03
<VARIANCE> 39
 1.796153e+01 3.030845e+01 4.242693e+01 5.497835e+01 4.050241e+01 4.167172e+01 4.523837e+01 4.768527e+01 4.248086e+01 4.877982e+01 2.681646e+01 3.527608e+01 1.482642e-02 1.812018e+00 1.945516e+00 3.494648e+00 6.294341e+00 3.447383e+00 4.595783e+00 3.502042e+00 6.950793e+00 4.016171e+00 4.174056e+00 3.854082e+00 3.163136e+00 6.369072e-04 3.114358e-01 3.621397e-01 9.238040e-01 1.362767e+00 8.830857e-01 9.764256e-01 1.065195e+00 9.728813e-01 7.934172e-01 1.010772e+00 6.607625e-01 6.739066e-01 9.455879e-05
<GCONST> 1.070229e+02
<MIXTURE> 5 3.259276e-01
<MEAN> 39
 4.017918e+00 6.423193e+00 8.211565e+00 5.585878e+00 3.679183e+00 2.516354e-01 -2.144389e+00 -1.020013e+00 -1.587617e+00 -1.685157e+00 2.723758e-01 -1.575674e-01 5.169045e-01 -2.737658e+00 -1.561446e+00 -2.789734e-01 1.134195e+00 9.661895e-01 1.380023e+00 1.163909e+00 1.131583e+00 1.016518e+00 8.011453e-01 8.648133e-01 4.213278e-01 -1.145769e-01 -6.852944e-01 -6.488398e-01 -8.438340e-01 -5.242055e-01 -5.368309e-01 1.399328e-01 5.914723e-01 6.540102e-01 6.032566e-01 6.299115e-01 1.941807e-01 8.098787e-02 -5.026049e-03
<VARIANCE> 39
 2.701613e+01 3.121199e+01 2.022169e+01 3.800420e+01 2.330062e+01 3.438935e+01 2.874306e+01 3.823356e+01 3.012598e+01 3.473720e+01 3.132736e+01 3.458173e+01 1.577548e-02 2.270567e+00 2.076556e+00 3.602617e+00 3.127097e+00 3.509536e+00 2.763747e+00 3.022113e+00 3.455386e+00 3.126527e+00 3.785524e+00 2.637105e+00 2.396502e+00 1.644521e-03 5.167086e-01 5.355153e-01 4.136146e-01 4.974414e-01 4.754575e-01 5.895861e-01 6.396540e-01 5.875548e-01 6.630604e-01 6.320226e-01 4.501413e-01 4.963830e-01 4.404068e-04
<GCONST> 9.982146e+01
<TRANSP> 10
 0.000000e+00 1.000000e+00 0.000000e+00 0.000000e+00 0.000000e+00 0.000000e+00 0.000000e+00 0.000000e+00 0.000000e+00 0.000000e+00
 0.000000e+00 7.384636e-01 2.615364e-01 0.000000e+00 0.000000e+00 0.000000e+00 0.000000e+00 0.000000e+00 0.000000e+00 0.000000e+00
 0.000000e+00 0.000000e+00 8.494816e-01 1.505183e-01 0.000000e+00 0.000000e+00 0.000000e+00 0.000000e+00 0.000000e+00 0.000000e+00
 0.000000e+00 0.000000e+00 0.000000e+00 8.283618e-01 1.716382e-01 0.000000e+00 0.000000e+00 0.000000e+00 0.000000e+00 0.000000e+00
 0.000000e+00 0.000000e+00 0.000000e+00 0.000000e+00 5.053518e-01 4.946482e-01 0.000000e+00 0.000000e+00 0.000000e+00 0.000000e+00
 0.000000e+00 0.000000e+00 0.000000e+00 0.000000e+00 0.000000e+00 4.689057e-01 5.310943e-01 0.000000e+00 0.000000e+00 0.000000e+00
 0.000000e+00 0.000000e+00 0.000000e+00 0.000000e+00 0.000000e+00 0.000000e+00 2.534159e-01 7.465841e-01 0.000000e+00 0.000000e+00
 0.000000e+00 0.000000e+00 0.000000e+00 0.000000e+00 0.000000e+00 0.000000e+00 0.000000e+00 3.686295e-01 6.313705e-01 0.000000e+00
 0.000000e+00 0.000000e+00 0.000000e+00 0.000000e+00 0.000000e+00 0.000000e+00 0.000000e+00 0.000000e+00 3.800603e-01 6.199397e-01
 0.000000e+00 0.000000e+00 0.000000e+00 0.000000e+00 0.000000e+00 0.000000e+00 0.000000e+00 0.000000e+00 0.000000e+00 0.000000e+00
<ENDHMM>
~h "ba"
<BEGINHMM>
<NUMSTATES> 10
<STATE> 2
<NUMMIXES> 5
<MIXTURE> 1 2.550404e-01
<MEAN> 39
 -2.628755e+00 1.306098e-01 6.891193e-01 -7.949285e-01 2.135147e+00 2.430201e+00 2.964683e+00 4.625803e+00 4.512548e+00 2.843231e+00 3.181005e+00 1.035800e+00 2.521705e-02 -4.389193e-01 -9.602987e-01 1.944716e-02 1.856613e-01 3.262530e-01 8.502724e-01 9.330323e-01 7.702953e-01 7.328410e-01 6.917318e-01 3.883493e-01 3.081826e-01 2.410262e-02 1.004480e+00 -2.532697e-02 1.119539e-01 5.066267e-01 2.763219e-01 -1.225481e-01 -1.063378e-01 -3.629535e-01 -7.266888e-01 -3.516524e-01 -2.251763e-01 1.036941e-01 8.938536e-02
<VARIANCE> 39
 1.024657e+01 5.494888e+01 1.857409e+01 2.584570e+01 3.336150e+01 3.046455e+01 3.663361e+01 3.698104e+01 3.555110e+01 3.810666e+01 2.902320e+01 2.267550e+01 1.667579e-02 1.869823e+00 4.028270e+00 2.191422e+00 2.216545e+00 2.335273e+00 2.483607e+00 3.031374e+00 4.276545e+00 3.088960e+00 2.797714e+00 2.707791e+00 2.542160e+00 1.046440e-02 1.844382e-01 6.194527e-01 4.453256e-01 3.638376e-01 5.509076e-01 5.303134e-01 5.968210e-01 7.890081e-01 7.741749e-01 7.666526e-01 5.687095e-01 4.476485e-01 4.058470e-04
<GCONST> 9.970015e+01
<MIXTURE> 2 1.423625e-01
<MEAN> 39
